,z0,z1,z2,z3,z4,z5,z6,z7,z8,z9,z10,z11,z12,z13,z14,z15,z16,z17,z18,z19,z20,z21,z22,z23,z24,z25,z26,z27,z28,z29,z30,z31,z32,z33,z34,z35,z36,z37,z38,z39,z40,z41,z42,z43,z44,z45,z46,z47,z48,z49,z50,z51,z52,z53,z54,z55,z56,z57,z58,z59,z60,z61,z62,z63,z64,z65,z66,z67,z68,z69,z70,z71,z72,z73,z74,z75,z76,z77,z78,z79,z80,z81,z82,z83,z84,z85,z86,z87,z88,z89,z90,z91,z92,z93,z94,z95,z96,z97,z98,z99,z100,z101,z102,z103,z104,z105,z106,z107,z108,z109,z110,z111,z112,z113,z114,z115,z116,z117,z118,z119,z120,z121,z122,z123,z124,z125,z126,z127
10-DEBC,-0.47781652,-0.4968651,-0.15161434,0.108842544,-0.18181063,0.27032667,-0.07910994,-0.39234635,-0.18472505,-0.07642813,0.39572778,-0.07573958,0.40497792,0.56175053,0.3777839,0.124600634,-0.13625623,-0.21443771,0.20317924,0.05172146,-0.22697152,0.0039677955,0.5441763,-0.2388617,0.07512799,-0.08170261,0.041028738,0.0066994987,0.51623,-0.08391936,0.22782505,0.08974679,-0.2675958,-0.3430423,-0.21125163,0.34308127,0.1123168,0.11494771,0.44874117,0.0096759815,-0.1378059,0.16898407,0.33694336,0.32871237,-0.24503557,-0.045210093,0.0837684,0.33487546,-0.17855324,-0.0934382,-0.14854382,0.18065806,-0.13206401,-0.06401992,0.03246705,0.104980595,0.060156018,0.14933449,-0.06802487,0.08953906,0.44733334,0.009079464,-0.058465138,-0.38170364,0.20634185,-0.41771302,-0.060936026,0.09582049,0.17830318,0.47456655,0.067961894,0.22379187,-0.13753252,0.1322655,0.23081252,-0.37936452,0.087661445,-0.044700876,0.110185616,-0.4334711,-0.3113483,0.005035432,0.012457492,0.15451784,-0.017211623,-0.19718659,0.12635468,0.062187187,0.27660236,-0.24797957,0.92822826,-0.43043557,-0.015576158,0.20256643,0.042967007,-0.2420469,0.05390789,-0.14760137,0.047489982,1.1023184,-0.12992227,-0.07113188,-0.07292091,-0.17736068,0.13822444,0.308707,-0.32808128,-0.29270703,-0.7604724,0.37137341,0.25305748,0.01315169,-0.21251732,0.06089242,0.11092691,0.39248556,-0.08695444,0.07114686,0.21308123,-0.052445468,-0.20214112,-0.18946329,-0.12947804,-0.19514433,-0.4896174,-0.11532875,-0.38415825,-0.2530315
1271738-62-5,0.1542363,0.06118828,-0.022834934,-0.1694793,-0.23941427,0.082769156,-0.090389,0.114221156,0.074211046,-0.055602044,0.09034975,0.0053388476,0.13718063,0.010642707,-0.1231859,0.1736634,0.023476984,-0.11922895,0.14556575,0.01811803,-0.056622565,0.11998686,-0.18971148,0.1397506,-0.06598157,-0.036113247,-0.043412287,0.09512626,-0.1895764,0.10764837,0.028947692,0.07926391,0.08966412,0.022932734,0.08937009,0.05864246,-0.23560902,-0.043586362,0.04676353,-0.08814318,0.045462035,-0.05054686,-0.21250987,-0.06330195,0.15773572,0.1944601,0.22070654,-0.115711235,0.0224402,0.0020101895,0.032349758,0.00463951,0.16365325,0.04066046,-0.036113545,0.15550649,0.12577473,-0.13555863,0.009629211,-0.18842444,-0.16132048,-0.017286856,-0.13398752,0.05157427,0.0039862175,0.07742759,-0.055471867,-0.07226909,0.03020209,-0.20982626,-0.18999755,-0.092922114,-0.0645491,0.121548444,-0.12620541,0.18029475,0.032875948,-0.16972797,-0.12519807,0.11921887,-0.1441248,-0.120452225,-0.039676234,-0.14669721,0.11452814,0.039325237,0.03384115,0.10172959,-0.03964907,-0.012316415,-0.12816352,0.043108772,-0.066630684,0.42307886,-0.21430518,0.028147364,0.00606972,0.17147884,-0.119028345,0.13876382,0.16006453,0.008700483,-0.1075444,-0.11368784,-0.19073004,-0.07713054,0.0835277,0.18809384,0.20569135,0.06407656,0.07938373,-0.19239274,-0.19101913,-0.21016145,-0.23106694,-0.08487663,0.10126078,-0.05656326,-0.07412387,-0.04993214,-0.032381423,0.016163073,0.008958124,0.17367983,0.04198733,0.0115525015,0.05027388,-0.053052492
"16,16-dimethylprostaglandin-e2",-0.029113065,0.2931959,-0.32490045,0.28246763,-0.09168645,-0.11582288,0.051007677,-0.16495824,0.099232316,-0.35847545,0.2832764,-0.0024561388,-0.4861944,0.35223314,-0.327211,0.39113054,-0.24813753,0.28432155,0.3685686,0.16980952,0.1526909,0.25262135,-0.010471288,0.25132278,-0.036361136,0.11006193,-0.03147472,-0.114711344,0.048196856,0.030788157,-0.14504124,-0.021194557,-1.0393988,-0.046253063,-0.0040359087,-0.00041093677,-0.2445856,-0.06660697,0.17307013,-0.34280738,0.2878497,-0.5427992,-0.25400415,-0.4356391,-0.0044862255,-0.27115914,0.21122973,0.050594077,-0.29584464,-0.428689,0.26593417,0.65452105,-0.0072517283,0.28205803,-0.06538269,-0.06538051,-0.11440165,-0.18752785,0.13851297,-0.18330821,-0.23270519,-0.0011011995,0.049280897,-0.015461695,0.11466286,-0.10793678,0.01139799,0.093267545,0.37513986,-0.3399506,-0.14412227,-0.33006805,0.21892358,0.32512274,0.1439594,-0.15006977,-0.18756996,-0.22905001,-0.034015648,0.19603236,-0.54485863,-0.3469248,-0.44176045,0.16043772,-0.19220388,-0.101155214,0.05845316,0.43913186,-0.281981,-0.022342412,-1.6025983,-0.075209714,0.3842796,0.44328195,-0.2902218,0.14913394,-0.1495962,0.22259215,0.45999885,-0.37849602,0.22472404,-0.12801735,-0.0006573871,0.23085845,-0.18142422,0.35660207,-0.19611625,-0.15900743,-0.32942832,-0.24624072,0.61670566,-1.0118878,-0.43485543,0.1672407,-0.16950788,-0.023528945,-0.017384244,-0.31779057,-0.027611315,0.13908917,-0.088012084,0.28689033,-0.117423885,0.2615997,0.25404966,-0.20285812,-0.058231108,-0.14093913
17-hydroxyprogesterone-caproate,-0.20916241,-0.44043118,-0.31005496,-0.045783725,-0.3748501,0.23879464,0.12013948,0.14738157,0.02630838,0.29289874,-0.023791227,-0.32067895,0.16740635,0.36971712,0.09116815,-0.35122693,0.11740984,-0.6900551,0.14229089,-0.02100201,0.113704614,-0.14132646,0.06010209,-0.20892222,-0.057815656,0.30284846,-0.15058003,-0.040217157,-0.034786835,0.37727985,0.6068115,0.3608494,-0.17715599,-0.06774186,0.011711907,0.07286485,0.061972186,-0.14701147,0.34147608,0.27436087,-0.16645628,0.22015785,-0.11827867,0.008768355,-0.00034864247,-0.10542076,0.22918978,0.3953758,-0.120567486,-0.32787478,0.029511118,0.22843139,0.12877396,-0.17671949,0.17759858,0.05305068,-0.013853475,-0.047197856,0.26071966,0.11949602,0.101119205,-0.06047205,0.0025874525,-0.3471659,0.3709002,-0.1896568,0.1305017,-0.11211897,0.42746928,0.44469526,-0.091744244,0.22987631,-0.2741112,0.28750566,-0.21069896,0.03257611,-0.22252488,0.037230883,0.41317412,-0.1491733,-0.7885188,0.14776108,0.06042138,-0.11226043,-0.19006455,0.030872487,0.31407076,0.0814728,0.41945624,-0.020151665,0.459786,-0.48190412,-0.20056723,0.5462312,-0.09272275,-0.19413579,0.120176375,-0.02780521,-0.2639534,0.68739367,-0.3059265,-0.05891711,-0.28202143,-0.083831295,0.059564263,0.07073609,0.3623294,0.16105628,0.5181188,0.20743056,-0.01989584,-0.04306191,0.0134374155,0.064778015,-0.06252463,0.10201806,0.07309498,0.13915506,-0.14753334,0.12732005,-0.011043519,-0.23230922,0.083973825,0.035950027,-0.2970183,-0.0016304408,0.047986798,-0.19763756
"2',5'-dideoxyadenosine",0.03311216,0.36827034,0.04663554,0.15047704,-0.6324369,0.045914114,-0.055573937,0.04492641,-0.028710049,0.010426097,0.031414974,-0.08242121,0.322576,0.016362466,-0.31710917,-0.21744068,0.35845438,0.09852664,-0.029948063,0.13884398,0.24971896,0.1864357,-0.5757351,0.28692076,-0.015147537,0.2091756,-0.055327814,0.0030028876,-0.2427983,0.17103666,-0.0790851,-0.21431714,-0.16476111,0.17279392,0.13751693,-0.12346739,-0.2721638,-0.029634807,-0.50071794,0.06948052,-0.3093598,0.0027207937,0.11055197,-0.43198347,0.22296993,0.1669227,0.13688697,-0.21736726,0.28995678,-0.114774205,0.11367593,-0.34987932,-0.07850178,0.2050474,-0.13074268,-0.19695397,-0.29998988,-0.033065747,-0.0066631404,0.056627408,-0.15351214,-0.16352586,-0.03931107,0.03146304,-0.1960942,0.19509602,0.07060738,0.0015037619,0.11290455,0.028616628,0.15354618,-0.21293423,-0.03998753,0.004746901,-0.16788748,0.5053018,0.061091326,0.40494058,-0.25377706,0.25368407,0.29776776,-0.15262835,0.20662218,0.0331871,0.2532333,0.32250902,0.24491394,0.16700236,0.14092797,-0.0757354,-0.53304845,0.020943116,0.14953949,0.5186426,0.11840406,0.35713795,-0.05923847,-0.18804142,-0.09705204,0.2858252,0.15990773,0.10071011,0.050523266,0.17725277,0.2150016,-0.3805561,0.108644575,0.34629303,-1.5605735,-0.13762999,0.0662912,0.88337,-0.094475575,0.1469797,-0.18016689,-0.17244452,0.2002511,0.06387214,-0.11790454,0.20927978,0.2621302,-0.2956184,0.017740998,-0.36194667,0.11974491,-0.0032420736,0.03259687,0.29542926
2-iminobiotin,0.23616803,0.07227984,-0.20815803,-0.0028182808,-0.1749623,0.23058353,0.21064727,0.06880147,0.039267905,0.14078468,0.355051,-0.18675761,-0.09016881,-0.09218374,-0.13286608,-0.008790828,0.0023649856,-0.30546442,-0.21305604,-0.12986535,0.12825972,0.06049013,0.17936681,-0.27424797,-0.2385075,0.011726894,-0.11945388,-0.08792105,-0.14388753,0.21640219,0.14321789,0.09153174,-0.14026855,0.0021871403,-0.14574529,-0.119525574,-0.05410455,0.11715561,-0.055978455,-0.15021868,-0.11506271,-0.0036711525,-0.43945363,-0.27123067,0.06486737,-0.21522522,0.010105828,0.032460593,-0.13211359,-0.37421846,0.066705264,0.027884366,0.121676825,0.07958847,0.0985333,0.008383319,0.116968215,-0.13051222,0.094878964,-0.0077307876,-0.17731796,-0.042692915,-0.05547413,-0.00083488587,-0.032858983,-0.0095402,0.071957834,0.32992852,0.15567482,-0.17633447,-0.025586437,-0.18541712,-0.1356688,0.16748194,-0.055063467,0.13973823,-0.1073558,-0.110545784,0.21216993,0.1722963,0.13719696,0.07172845,0.04641401,-0.33921608,-0.0924334,0.153433,-0.012932435,0.07652964,0.2566495,0.10759996,-0.54956514,-0.04568407,0.05237566,0.112698734,-0.035710543,0.18513441,0.19617188,0.044342756,-0.16422848,0.1388489,-0.19038759,-0.078539476,-0.055424906,0.056302607,0.21650305,-0.0081431335,0.19436468,0.13348435,0.13716713,0.097670704,0.10406177,-0.23111114,-0.1690204,0.15208386,-0.11274054,-0.10159522,0.22806196,0.03135393,0.03262137,0.36114866,-0.108050555,0.013495542,0.13610709,0.17620897,-0.08688915,0.13627125,-0.22300154,-0.14200464
2-methoxyestradiol,-0.052512053,-0.61366916,-0.19821464,0.26905668,0.2827354,0.07277329,-0.044557888,-0.10847276,0.10596359,-0.21550201,0.61220044,0.33798718,-0.13801599,-0.1492464,0.28302854,0.43205604,-0.3334974,-0.038180597,-0.18345849,-0.16291355,0.09325105,0.44289607,0.74494344,-0.21374477,-0.05463125,-0.21951345,0.2579773,-0.1664282,0.27676183,-0.069558114,-0.15424314,0.03350648,0.32444584,-0.13146739,0.021888066,0.24191058,-0.107936956,0.6355166,0.0969234,-0.28389475,-0.07050803,-0.14712167,-0.5568947,0.3639628,-0.09070273,0.023240695,-0.21795543,0.07704585,0.24581893,0.21943913,-0.15343139,0.198893,0.1682707,0.32023638,0.11467136,0.04322699,0.47180527,-0.2762003,-0.08831571,-0.007252751,-0.065839365,0.09467267,-0.1493662,-0.13582571,-0.33754498,-0.049343266,-0.022681432,0.35246235,-0.04605408,-0.45273972,-0.024147805,-0.16838579,0.06219642,0.27864248,0.54620713,-0.449205,0.25767815,-0.29177374,0.086709745,-0.09375276,0.14224821,-0.20530233,-0.10376319,-0.25201017,-0.37538427,-0.059657983,-0.26700526,0.071661234,-0.09684078,-0.026304642,-0.05823621,0.082955495,0.3872909,-0.12281662,0.35080573,0.11745284,0.32913962,0.20893171,0.089499265,0.33490622,0.024803102,-0.15804861,0.13318042,-0.11753149,0.12269779,-0.09790352,-0.3810237,-0.05085787,-1.7450304,0.228416,-0.12117854,-0.39259592,-0.100928664,-0.24539249,-0.38364473,0.049902394,-0.0915731,0.2692657,0.35216498,0.114071295,-0.033495583,0.0283349,-0.0035115108,0.21292135,-0.08895412,0.06844097,-0.66025734,-0.14621846
"3,3'-diindolylmethane",0.034481384,0.14570548,-0.36764395,0.17279907,-0.3377287,0.1342981,0.015754014,0.033637706,0.07220687,-0.12267032,0.30818594,0.084573284,-0.012080486,-0.045858722,-0.053118654,0.17755133,0.1898904,0.08601953,-0.0006735772,0.01637425,0.16813754,0.45922965,-0.077910386,0.07625185,-0.06216338,0.010899962,0.17144664,0.058953684,-0.15109809,0.14127688,-0.088663355,-0.13729621,-0.021330016,-0.12352297,0.017363649,-0.09745707,-0.37380058,0.398244,-0.24702978,-0.0564758,-0.14198989,-0.14051917,-0.39026165,-0.19761315,0.08466634,-0.2116099,-0.108949035,-0.08747348,0.1697188,-0.042589042,0.20403704,-0.06637305,0.085080214,0.393348,0.053839765,-0.18609391,-0.008130595,-0.14297731,0.14841767,-0.005744528,-0.34373695,-0.10191727,-0.03165879,0.16549397,-0.38167673,0.23439124,0.12367887,0.2864772,0.2753658,-0.2126239,-0.059377845,-0.303572,-0.035495523,0.4786345,-0.05415061,0.2511512,0.12876312,0.11418652,-0.07646471,0.26395658,0.3068521,-0.05489214,0.21755551,-0.15269746,0.03336237,0.26430288,0.07883288,0.07991678,0.09803857,-0.12956503,-0.44569626,0.14023636,0.26466128,0.12542187,-0.00077849254,0.3136708,0.26078257,-0.15982178,-0.20420882,0.2923627,0.057471007,-0.10405776,-0.12447837,0.18670578,0.18401341,-0.15193981,-0.2634022,0.2756096,-1.4435933,-0.08898036,0.141377,0.26220325,-0.28673205,0.026553629,-0.328416,0.056771014,0.12110128,0.037005007,0.030506145,0.2875514,0.14792736,-0.14966542,0.30409673,-0.06459077,0.06336761,-0.069456965,-0.28705415,0.029680947
3-amino-benzamide,0.084320694,0.0050767213,-0.025440589,-0.057975408,-0.060528435,0.10344289,0.12000732,0.019121833,0.036862656,0.113921285,0.24080878,-0.16324875,-0.001991854,-0.12854818,-0.106082216,-0.08244325,-0.059300743,-0.36697462,-0.04892481,-0.13905051,0.07583357,0.005093809,0.08833653,-0.16094784,-0.07359477,0.013597468,-0.056272384,-0.02789205,-0.016415952,0.09978567,0.20871168,0.14489625,-0.004701539,0.09108485,0.043713044,-0.008379232,0.025777657,-0.04278717,0.06241724,-0.019496713,-0.06726274,0.07096493,-0.25818813,-0.15667687,0.051173642,-0.047926687,-0.014805938,0.05134829,-0.04152537,-0.21847923,-0.021818826,-0.040705815,0.092491426,-0.058199536,0.054422565,0.013609896,0.077115685,-0.18749413,0.013513072,0.037624132,-0.09329459,-0.017793205,-0.048576303,-0.17363515,0.110275395,-0.0630253,0.040664215,0.13965546,0.100084156,-0.06999959,0.0168635,-0.105873026,-0.15348543,0.0011182036,0.102078326,0.06901081,-0.08592087,-0.059636235,0.25650024,-0.025889922,-0.03576127,-0.015280157,0.0017638654,-0.22188179,-0.06773329,-0.014559466,0.033756245,0.022618525,0.1279639,0.012169184,-0.26138702,-0.075145915,-0.047682717,0.19951597,0.00017839577,0.098861046,0.12914017,0.072604746,-0.057926908,0.1584889,-0.06833229,0.033549413,-0.010882559,-0.041626215,0.111111104,-0.08836746,0.2998592,0.12124023,0.15802297,0.08465275,-0.06927007,-0.13336925,-0.01604326,-0.016229287,-0.046049405,-0.14336756,0.053304512,0.12105008,-0.0804004,0.16827393,-0.0066216365,-0.050271012,0.026963439,0.07743771,-0.06436543,0.116069876,-0.013647923,-0.010765963
3-deazaadenosine,0.12932192,0.05350834,-0.009285804,0.0007502381,-0.19495396,0.07140587,0.14545311,-0.0057756663,0.025648952,0.01319579,0.06645638,-0.014637627,0.00040889066,0.069613785,0.11479829,0.17996058,-0.020833382,0.27532044,0.059948515,-0.007479877,-0.059957862,-0.016582422,0.079594016,-0.15320808,-0.012256092,-0.038965996,0.07703658,0.008232372,0.038483255,-0.04471682,0.101665154,0.1211036,-0.101098195,-0.028514037,-0.078556545,0.01822686,0.014514136,0.039443955,-0.024958856,0.10057181,0.002723394,-0.0361262,-0.073484644,-0.06390391,0.090642735,-0.27296484,0.06785368,-0.1738857,-0.15126167,0.08112333,0.021674363,0.00025171041,0.00881039,0.055185553,0.15661278,0.04266124,0.17745002,-0.013189182,0.0054532373,-0.05865369,-0.03221575,0.087476484,0.06110005,0.1807152,-0.15976919,0.010013685,0.072854504,0.0899324,-0.06040185,-0.063678145,-0.018687299,0.054690987,0.085436046,0.056115136,0.033968516,-0.061213076,-0.06617251,-0.23996735,-0.08290287,-0.04068024,-0.003030125,0.08291641,-0.08396706,-0.12160812,-0.080530174,0.034367364,-0.14479506,-0.07904346,-0.027530383,0.06694513,-0.26131633,0.061667886,0.030048722,-0.021689605,0.11834681,0.06609329,0.07560681,-0.0037918612,-0.05212516,0.21665536,-0.06817995,-0.0774853,0.075689,-0.033649072,0.023030806,0.049715146,-0.18833114,-0.005816115,0.50361645,0.10276961,0.091505915,-0.420417,-0.034451727,0.0945777,0.034919105,0.11094673,-0.046600796,0.065626316,0.100641966,0.11018579,0.065940894,-0.0049709883,0.13565335,0.03724873,-0.09845667,-0.03987146,-0.28273138,0.042451244
"4,5,6,7-tetrabromobenzotriazole",0.1607194,-0.095584534,0.01280842,-0.18637896,-0.07077369,-0.0065430384,-0.10709378,0.020167075,0.021291917,-0.010213526,0.12768868,0.046937738,0.076688595,-0.11051631,-0.0048522353,0.02877853,0.023717059,-0.11422418,0.058975242,-0.013420426,0.03814023,0.00085704774,-0.002118282,0.07177389,-0.11893087,0.050987065,-0.06384812,-0.03063488,-0.12725979,0.18943435,0.03403837,0.018537607,-0.05436226,-0.08733459,0.04725999,-0.07828554,0.10973289,0.02169864,0.08748303,-0.03837446,0.074402094,0.053430267,-0.029663675,-0.094607234,0.06977103,0.026176726,0.14340965,0.033167534,-0.03852092,0.0036208755,-4.5847148e-05,0.05347314,0.043198243,-0.056693003,0.06275001,0.11384478,0.11621291,-0.053878486,0.08454538,0.06140218,0.0018371977,0.0024657752,-0.12023456,-0.05489572,0.023518685,0.0034644827,-0.051550224,-0.034202002,0.0104948245,-0.03024438,0.122754775,-0.072617486,-0.036898304,0.02328582,-0.18780461,0.025224468,-0.017830811,-0.12261011,-0.13434263,0.0951141,-0.004796628,0.06768738,0.050827995,0.015526146,0.13196108,0.07212417,0.046449978,0.06798122,-0.013317961,0.024721364,-0.19534373,0.11891927,0.04686769,0.009565581,-0.02294369,-0.13824797,-0.07212511,-0.005969323,0.037237532,0.14774287,0.014651602,0.03075771,-0.12793402,-0.051436447,-0.122511886,-0.029253041,-0.04512755,0.084182315,0.05489471,0.052926045,0.17136298,-0.07514381,0.07802918,-0.029783737,-0.020298878,0.1326531,-0.0027325135,-0.058290914,0.103856474,-0.006434638,-0.10757618,0.037811942,-0.02793692,0.12766594,-0.028333519,-0.008070167,-0.0024328623,-0.027087066
5-aminolevulinic-acid,-0.029031146,-0.82537234,0.37982583,-0.513477,-0.031325467,-0.6842084,-0.6006875,-0.28698236,-0.009475309,0.1428629,0.35443228,-0.01719043,0.19793136,0.26714453,-0.27852187,-0.5316217,0.07299176,0.2948317,-0.29910254,0.16352436,0.29069197,-0.24370559,0.005805552,0.36643097,0.095388494,0.04627879,-0.15795544,-0.2636542,0.028018422,-0.07762244,-0.24248219,-0.17504945,0.35503057,-0.20886327,-0.21173277,-0.111903794,-0.0105107855,0.15760532,-0.25970885,-0.03557706,-0.2913326,0.36958215,0.2780873,-0.3228196,-0.14570123,-0.06950459,-0.44076782,0.45043752,-0.047090527,-0.30822888,-0.49864867,-0.017770138,-0.07226394,-0.05036895,-0.3186697,0.079174034,-0.25812986,0.07013287,0.16860855,0.67654026,-0.03392642,-0.36003086,-0.056970656,-0.13593785,-0.194651,-0.3722113,-0.1405179,-0.23802534,-0.71891224,0.14806485,0.17676651,0.2229954,-0.3684031,-0.55711937,0.10116922,-0.377196,0.08227362,0.5817514,-0.4193755,-0.20969437,0.50622565,-0.5047389,0.26456147,0.13358428,0.8212883,0.20192105,-0.116890684,0.1703351,-0.215891,0.058991894,-0.2144541,0.14022787,0.12955537,0.1830583,0.60553855,-0.2471455,0.0183416,0.45210108,0.17459653,0.2563287,0.2524129,0.37437952,-0.1504084,-0.46293995,-0.27660772,-0.56283784,0.1439561,-0.1775981,-0.019319467,0.50828165,-0.027914906,0.13919401,0.27569425,-0.104774706,-0.2686113,0.12803906,-0.084545486,0.22284202,0.047504857,-0.00082776323,0.09014194,-0.30888882,-0.23730838,0.059645012,-0.36265552,-0.17153937,0.1817892,0.072928295
A-443654,0.5281328,1.4958014,0.017543959,0.37278283,-0.36356285,-0.34644613,-0.21935192,-0.44781703,-0.4376714,0.29707125,0.03339175,-0.13694979,0.663516,-1.3358359,0.46125418,-0.1682728,-0.4278974,1.1998801,-0.30144984,-0.1812349,0.02308671,-0.720372,0.9442536,-0.465101,-0.107049264,0.6047487,0.23449805,-0.12123884,-1.281625,0.8766226,0.35703415,-0.2163481,0.35570332,-0.38245872,0.91331965,-0.6593034,0.27883375,0.16485271,0.446886,0.1886333,0.8084524,0.7933825,0.39785215,0.294525,1.1439416,-0.85644823,0.76392066,0.08852632,2.6143062,-0.30819762,-0.45915407,0.48539668,-0.124906495,0.60496575,-0.077154,0.4740567,0.6986191,-0.0011512209,0.50027,-0.1741683,0.7086894,-0.06251898,-0.2782535,0.47939268,1.0249223,0.30333832,-0.21718837,-1.1744328,-0.07102923,0.19983864,0.34954244,0.6130692,0.034838293,-0.26520348,0.43323794,0.04742153,0.777609,-0.55529934,0.4299615,0.6872351,-1.4644829,-0.34218496,-0.09049396,0.7363431,-0.12187407,-0.049309194,-0.115209654,-0.24236624,0.35646975,-0.42718065,-0.1844054,-0.25849319,-0.47305536,-1.7474966,-0.17801045,-0.7442236,0.18424353,-0.18994123,-0.17159157,-0.68334574,0.54910797,0.36433533,-0.5277367,-0.22477719,-0.26089385,1.3257084,-0.87711686,0.6523821,-0.0031741448,0.24439375,-2.2932072,0.09668726,-1.3860558,0.15201524,0.36022842,0.2829034,-0.21819592,-0.19692305,0.4784171,-0.16203617,-0.5945408,0.1345563,-0.59521776,-0.4434532,-1.4175959,1.2177464,-0.5482433,0.3219322
A-66,-0.17543408,0.013546649,0.35016817,0.62738425,0.516507,0.03329338,0.1388998,0.113706894,-0.105293065,-0.030745456,-0.06992468,0.09762913,0.41169086,-0.09624095,-0.21858399,-0.13325486,-0.04733236,-0.7703293,0.24697955,0.036807522,0.16598803,-0.027282383,0.020666488,0.09051079,0.037861243,-0.0931107,0.070151865,0.19209364,0.12326999,-0.2081841,-0.10441768,0.36187413,-0.21020424,0.23047689,0.34489185,0.44071126,-0.10133476,0.019774841,-0.34737325,-0.16817583,-0.17499429,-0.15244712,-0.07289109,-0.015814723,-0.24918233,0.2754064,0.20963101,-0.30612865,0.08616251,0.064622276,0.011841746,-0.24964075,0.16752583,0.19604573,-0.1700725,-0.18085065,0.1520226,-0.17922752,-0.46902496,-0.043585178,-0.038826562,0.043907247,0.16511595,0.022971168,-0.46214145,0.15939036,-0.18010046,0.03501051,-0.24413368,0.08536902,0.17821588,-0.08770019,0.3227327,0.08307567,0.4836488,-0.1856705,0.16344398,0.087669164,0.037778344,0.45567614,0.1855759,0.037663005,-0.11053248,-0.39209795,-0.20559996,0.44417953,-0.21650875,-0.2799266,-0.27550972,-0.20017861,-0.03863283,-0.047962833,-0.31130347,-0.49638686,0.08430638,0.40310937,0.37877148,-0.25273126,-0.27324283,0.0050593726,-0.049017537,-0.2788086,0.6153192,0.319832,0.22826044,-0.08364718,0.14658116,0.2230198,-0.034210913,-0.2088023,0.5970445,-0.2298341,-0.17910992,0.24789076,-0.08888727,-0.2648944,0.15137823,0.74470466,-0.3897239,-0.002270326,0.13829333,-0.33038977,0.04092283,-0.13453397,0.324485,0.09903499,-0.5970006,0.32306585
A-769662,-0.0012690108,-0.015328312,-0.022691734,0.00702345,0.21105899,0.064042196,-0.07619788,0.023885788,-0.09326339,-0.013213808,-0.08716819,0.019238526,0.06030606,0.059183627,0.03544872,0.015890263,0.020570792,-0.29261485,0.02486851,0.046296306,0.11192351,0.04229694,0.07000288,0.03677327,-0.054276694,-0.044023395,-0.052871663,0.055037584,-0.031052968,0.042020496,-0.07611953,0.01146264,-0.07129787,0.008099079,0.018101428,0.024972163,0.024674194,0.012482058,-0.032981336,0.026637906,0.011167158,-0.10033499,-0.047943242,0.007152018,-0.04651233,0.11640949,-0.007377807,-0.047619104,0.007610224,0.015818046,0.021806637,0.018816551,0.0008769296,0.03774817,0.042302314,-0.06685737,0.06236656,-0.072578065,-0.027493862,0.08474623,0.06339802,0.038089953,-0.033152066,0.045245886,-0.05202636,0.07888446,-0.011232225,0.02856379,-0.04863029,-0.012326375,-0.065879434,0.013444263,0.022631165,0.08359664,-0.048895814,-0.08522665,0.08001782,-0.032688484,-0.055822365,0.12122694,0.058753327,-0.010768484,-0.018260054,-0.08892007,0.006075602,-0.026507042,-0.022946095,-0.077707574,-0.0018377379,0.055607103,-0.0027028807,0.060526203,-0.10219423,-0.074273795,-0.018732458,0.013172885,0.0012845602,-0.029949956,-0.03668861,0.084635645,0.07674976,-0.10966207,-0.034385055,-0.013862044,-0.038051724,0.00409493,-0.0047189966,0.08505262,-0.01762579,-0.021304233,0.095803514,-0.15249762,-0.028225414,-0.11288727,-0.14146194,-0.062730804,0.08078003,0.08360362,-0.014008142,-0.042903226,-0.07051699,-0.014526824,-0.036209196,0.03848508,0.10590561,-0.008942785,-0.08296719,0.04867662
ABT-202,0.114244625,0.26438314,0.24169114,-0.08240063,-0.53446555,-0.07677738,0.053942565,0.30314714,0.079744056,-0.022283642,-0.045254685,0.03253168,0.1627116,0.0633433,-0.21255651,-0.06790627,0.10380083,-0.015211367,-0.19988793,-0.09415528,0.12385672,-0.095810905,-0.3386069,0.09088871,-0.12408946,0.14846207,0.120473295,-0.17737769,-0.102197066,0.04394034,-0.1075391,-0.011039965,-0.035901178,0.16432326,-0.078406096,-0.0351471,-0.18399028,-0.11425002,-0.32925618,-0.03546374,0.09198658,0.19948491,0.19982596,-0.051440813,0.16161,0.21797,-0.41593572,-0.14515889,0.1470978,-0.19724822,-0.22411412,0.035982788,0.038357124,-0.06605613,-0.090958714,-0.083842576,0.019714655,-0.09383988,-0.048483234,-0.07743471,-0.1409231,0.12652825,-0.028862845,0.16291304,-0.029963506,0.116187476,0.05142421,-0.03997037,-0.08427749,-0.003749635,0.03816595,-0.21412157,-0.046531986,-0.3803596,0.1389957,0.24444729,-0.17886661,0.14936611,-0.27245587,-0.024748478,-0.056646924,0.08463582,0.019309128,-0.18406264,-0.006648008,0.18398485,0.10738908,0.014054969,-0.17773877,0.08848043,0.1382592,-0.19321051,0.0058053765,0.17069645,0.06986907,0.022660246,-0.11709197,-0.10852695,0.018258367,0.8264597,0.09176042,0.0724486,0.20425409,0.23756051,0.15436141,-0.284044,0.20630382,0.29184628,-0.9085524,0.15199715,0.28493458,0.26885447,0.11738831,0.06335735,-0.021375814,0.27266788,0.10044504,0.2232376,0.05528778,0.12112449,0.10469745,0.15767665,-0.22931933,0.016464435,0.24676634,0.010272946,0.011220495,-0.07925619
ABT-239,-0.069530375,0.30545694,0.022367246,0.10599526,-0.28572047,0.099377304,0.11695726,-0.07279435,-0.0233129,0.17600876,0.30942267,-0.19225799,0.17525649,-0.25861835,-0.1350817,-0.3177795,0.15855461,-0.32027024,-0.115531296,0.025279338,0.14775683,0.116569325,-0.13935816,-0.004303273,-0.07988136,0.12276278,-0.051471557,-0.07482815,-0.22202118,0.132455,0.2509108,0.010762021,-0.022736758,0.192419,-0.042544253,-0.030778416,-0.08503805,0.0315549,-0.19702005,-0.035340797,-0.36502492,0.03914301,-0.16956668,-0.34461406,0.025924563,0.01676586,0.124266356,0.19189543,-0.062593505,-0.53239197,-0.015971115,-0.11947109,0.11718192,0.058579165,-0.03693372,-0.024806205,-0.17795637,-0.06540219,0.017010666,0.21249633,-0.005759321,-0.13324425,-0.063802555,-0.16687962,0.075403236,-0.010293204,0.057852432,0.15832336,0.15277708,-0.008975439,0.08273551,-0.122548155,-0.22040431,0.09290975,0.0118565485,0.1841824,0.052303184,0.29439142,0.2940139,0.122584805,0.12346578,-0.1296086,0.13393416,-0.19962485,0.060441714,0.15588185,0.15962303,0.12500675,0.30137452,-0.0116544785,-0.5053619,-0.041696526,0.09098874,0.56178147,0.037202578,0.30706325,0.1336629,-0.03415008,-0.1163944,0.051735453,-0.000414173,-0.07963371,-0.09732388,0.08068245,0.19349532,-0.19582209,0.24889767,0.23174,0.08061157,0.02526987,-0.03578627,0.40253854,-0.08236166,0.029569093,-0.24928187,-0.2400309,0.15950479,0.01190592,-0.10689687,0.23807453,-0.061133355,-0.30058962,0.069324255,-0.2585586,-0.11583932,0.12573314,0.033650607,0.12619337
ABT-724,-0.10227899,-0.08789341,0.051246896,-0.05005274,-0.21377926,-0.0893504,-0.05383982,0.041750003,-0.035644997,-0.045797676,0.048075754,0.0051359204,0.03259285,-0.14785784,-0.022311697,0.016385749,-0.059491396,0.22496714,-0.13109314,-0.03359255,0.024119249,-0.05216659,0.022360057,0.05984784,-0.04329154,-0.07075928,0.028203161,0.04178167,0.06489165,-0.06606804,0.0044397153,0.048931632,-0.097095095,0.03720502,-0.1501426,-0.0068825297,-0.04276315,0.0829844,-0.2620512,0.10674062,0.007531816,0.06661953,0.20528069,-0.04447967,0.018194713,-0.17768872,-0.015219768,-0.011528531,-0.10205805,-0.25865164,-0.10260742,0.19881316,-0.13890001,0.15364115,0.016430868,-0.06999806,-0.098774515,0.05618804,-0.049442645,0.008887159,-0.031586617,0.00645162,-0.02091578,0.14019725,-0.07684529,0.10420405,0.050453544,-0.03317741,-0.12006967,0.048219565,-0.061173063,-0.027062597,0.011050029,-0.21632253,0.24482381,0.0023323372,0.06857997,0.06261264,-0.21999764,-0.15106222,0.024458423,-0.12601356,0.09088898,-0.033457745,0.0116490945,0.09849418,0.040549804,-0.0828549,-0.13627377,0.0048663705,-0.2621453,-0.038361035,0.06798664,0.09644458,0.13719283,0.03368249,-0.026568705,-0.05967029,0.014952544,0.33219615,0.06644651,-0.08933096,0.2384153,0.018031135,0.048979655,-0.10710828,-0.03895094,0.011620222,0.5035134,0.24406324,0.2004789,0.0801516,0.019759636,0.066896975,-0.11814156,0.22543326,0.013904803,0.15153395,0.055509176,0.06737006,0.10727446,-0.04939828,-0.09495356,-0.13224603,-0.119922765,0.029372266,-0.041161597,-0.020732269
ABT-737,0.17563333,-0.55384743,-0.14147374,-0.39836058,-0.32749256,-0.04113825,-0.42011312,0.17674825,0.211123,0.004263008,0.05129418,-0.06163283,-0.04882906,0.20771134,-0.12980163,-0.12606373,0.045391336,-0.29748133,0.12507835,-0.033559762,0.33413452,0.016634542,-0.3007606,0.22255218,-0.34359637,0.27941853,-0.23637988,-0.037171204,-0.2095705,0.3090976,0.29804665,-0.039778702,-0.0025176404,-0.36235562,-0.17319225,-0.2507807,0.12309395,0.030391667,0.16791299,0.15428758,0.13667919,-0.06599492,0.08960709,-0.04693619,0.09594418,0.0639449,-0.042512707,0.16983771,0.105493635,0.37916687,0.19216378,0.13185184,-0.24736339,-0.118434,0.26094085,0.21812226,-0.07058117,-0.017391114,0.25478044,-0.053528875,-0.0098038595,-0.106845245,-0.10150701,-0.33152926,0.09276302,-0.023435812,-0.06481818,-0.08721708,0.24312666,0.25971907,0.062552474,0.035811767,0.17809775,-0.18348275,-0.5479729,0.15228152,-0.0036848895,-0.1241086,-0.3202174,-0.0009345338,-0.21792978,-0.18559761,0.17763023,0.39587584,0.13813744,0.19873294,0.39077106,0.38291508,0.06793126,0.31425413,-0.14449063,0.10866955,0.19666564,0.2304901,-0.059567325,-0.26474318,-0.33289853,0.16163298,0.16530302,-0.046852373,0.15521711,-0.10494903,-0.31131643,-0.20535289,-0.44695336,-0.15168388,0.12526086,0.12885523,0.34737155,0.43131405,-0.088348106,-0.16618823,0.12997596,-0.1271706,-0.48834336,0.44084275,0.08157061,0.029632378,0.23185997,-0.035718624,0.053501725,0.012504078,-0.19121933,0.12462468,-0.045194335,-0.060976386,0.30200568,-0.21972032
ACY-1215,0.11179951,-0.2797915,-0.2104478,-0.115381755,1.0235094,0.1405659,-0.035897095,0.23143664,-0.054820936,-0.2026977,0.6460282,0.2662611,0.1700156,-1.669913,-0.5889702,-0.3676522,-0.3079685,0.8321153,0.044007733,-0.39545768,0.3575267,-0.015894819,0.29612434,0.2010623,-0.1448227,0.4592395,-0.40393925,0.07864518,-0.3022457,0.7164217,0.5493194,-0.2952424,0.6105189,-0.01243959,0.8587998,0.0063126236,0.27410275,0.26708904,0.46920934,-0.5532151,-0.031863686,0.06797718,-0.44065884,-0.274865,0.3534938,-0.032156758,0.07232637,0.10772536,-2.6000884,-0.30777618,-0.2725937,0.16844372,-0.09115016,-0.17841966,-0.060202792,0.03453099,0.11671029,-0.36102387,-0.3238804,-0.034158032,0.14633553,-0.42369542,-0.30350944,-0.84729177,0.48819497,0.060070775,-0.31393707,-0.06349273,0.25986484,0.030197194,0.94380856,-0.5787874,-0.15861315,0.24156605,-0.30449873,0.35010898,-0.06726916,-0.182152,-0.5206678,0.37292844,1.0877329,-0.3768449,-0.114000514,0.23835745,0.5481669,0.30457073,-0.07661401,0.5096783,0.0075343233,-0.26576337,0.9876721,-0.2847893,0.3479878,-1.4314647,-0.27812722,-0.33541715,0.020086285,0.14128554,0.3021103,-0.49297634,-0.24368212,0.20197722,-0.023720458,0.14760262,0.16006021,0.42372397,-0.0657592,0.16209424,-0.2847812,-0.47841093,1.3956075,0.5962796,-0.07846795,-0.115357675,0.3619564,-0.039416265,0.18650837,-0.21560588,0.05036969,-0.20172262,-0.14155062,0.070181355,-0.17008546,0.42113027,0.07633433,0.32487088,-0.038693883,-0.041425273
AEE-788,-0.29518518,-0.24428354,0.37269914,0.059548497,-0.27905682,-0.20274049,-0.27442706,-0.39708647,-0.072791085,-0.27330226,1.0280942,0.35233635,0.5499369,1.1976539,0.33293837,-0.15163636,-0.15634665,-1.3365186,-0.38862872,-0.06544508,0.22037745,0.19600002,0.09823577,0.19818342,-0.27725586,0.1664736,0.5744481,-0.41952085,0.2172014,-0.17762624,-0.6859011,-0.10369854,0.27709213,-0.0062299,-0.064557165,0.08073096,0.03626159,0.06286444,0.0038606392,-0.040861167,-0.37393337,0.2600699,0.37012318,-0.021003691,-0.21992138,0.2537613,0.66560596,0.16692662,-0.6638994,-0.38910908,-0.92239666,0.4508832,0.356169,-0.15115088,-0.35458365,-0.12859577,0.1992026,-0.3162582,-0.10080193,0.7693747,-0.07425921,-0.19315901,-0.182163,-0.3518002,-0.018839141,-0.46897915,-0.090219565,-0.02039211,-0.031584304,0.09700464,0.45710313,-0.24183255,-0.10823333,-0.042665504,0.8547959,-0.8137963,0.20038876,0.82336307,-0.061485253,-0.30509856,1.0683743,-0.38943943,-0.008451022,-0.37770852,0.20240977,0.22610334,0.12797318,-0.018529452,-0.13757695,-0.06307503,0.052519504,0.067707285,0.28210813,0.110131904,0.5851915,0.1474207,0.32082674,-0.11619761,0.394855,-0.8141584,0.21411203,0.048984047,0.16489692,0.090944916,0.13187972,-0.5999889,-0.09951402,0.22835013,-2.8658705,0.40219283,-0.44563264,0.40681088,0.2738411,-0.3170101,-0.16431311,0.5910526,0.029215597,0.78674847,0.32383266,-0.090152964,-0.28729928,-0.31063974,-0.5975333,-0.07125954,-0.02727359,-0.09496784,-0.59604925,-0.0219986
AGI-5198,-0.18409182,0.00865449,0.28888667,-0.0019574165,-0.09583676,-0.03667599,-0.04619175,0.08403133,0.046700127,-0.062923975,0.0066009276,0.08229563,0.07105244,-0.24547172,0.012275711,-0.07072968,-0.17151664,-0.019717354,-0.08192468,-0.11377559,-0.089949526,-0.05563892,-0.1355207,0.1876083,-0.14117162,-0.100944564,0.08623947,0.1138335,0.10952901,-0.2598277,-0.13163115,-0.004610177,0.095102966,0.32098326,-0.030216439,0.04493644,-0.06270507,-0.16308425,-0.20608902,-0.052590273,0.001787914,0.027782284,0.45246667,-0.05168566,-0.04241185,-0.05805459,-0.34218612,-0.068614826,0.06257686,-0.48256764,-0.15215062,0.057760857,-0.13224933,0.0037119016,-0.12637185,-0.14306122,-0.18822938,0.037611872,-0.36900023,-0.16566294,0.042528853,0.09172011,-0.062472463,-0.058183786,0.13731116,0.094811,-0.10441443,-0.25544554,-0.057971306,0.09514946,0.033098362,-0.0926915,0.2636692,-0.4592504,0.43955308,0.051581837,0.14044975,0.12013613,-0.20559753,-0.23103894,0.046765104,-0.27751675,0.011064414,0.124818,-0.0011280179,0.06546014,0.102424175,-0.015118137,-0.2784955,-0.021554152,-0.49040872,-0.0059727877,0.14687999,-0.026188951,0.01764685,0.061166987,-0.08100824,-0.03645271,0.1314649,0.053663004,0.08723964,-0.024016006,0.5225332,0.13886592,-0.064154744,-0.13332072,0.08439878,-0.021810234,0.77881104,0.19641581,0.10751869,0.31113708,0.13437852,-0.068500936,-0.08970277,0.16591613,0.03709106,0.19739468,-0.07940982,-0.08655138,0.09013617,-0.0076895263,-0.35624668,-0.15888247,0.0153855905,0.03062284,0.22767708,-0.020064048
AGI-6780,0.10162069,0.091312736,-0.019437589,-0.023699712,-0.37824473,0.0632028,0.0564644,0.19365126,0.042184565,-0.16202156,0.022800181,-0.108564004,0.15729898,0.08220648,-0.2688691,0.10404156,0.09788345,0.23241998,-0.13844533,-0.030905,0.16041988,-0.07735944,-0.29130718,0.025620515,-0.12782127,0.04108253,0.015812334,0.04019483,-0.12572303,0.13211238,-0.007548202,0.02315018,-0.033816554,0.070615605,-0.010778829,-0.11932617,-0.19661821,-0.05667245,-0.2603128,0.021037836,-0.055915717,0.07113458,-0.11646621,-0.045060612,0.20378543,0.015072821,-0.14667122,-0.1978876,0.2504026,-0.0056797625,0.012798196,0.0619829,-0.15146792,0.1998825,-0.0004690066,-0.16940545,0.02063837,-0.07262087,-0.011772154,-0.16705579,-0.2176696,-0.03063407,-0.0040066633,0.18282485,-0.14129524,0.19861194,0.19217281,0.15228245,0.060737565,-0.07177293,-0.10166132,-0.17593792,-0.066882774,-0.102297276,0.062833786,0.2762155,-0.13413116,0.018713854,-0.2446607,0.11524171,-0.066716254,0.011398459,-0.03536322,-0.22216986,0.019452428,0.23931372,0.1139584,-0.056675814,-0.09527094,0.09302706,-0.018147068,-0.13301024,-0.067566656,0.26507688,-0.1156876,0.24246566,-0.12556574,-0.21074748,-0.08490342,0.7231443,0.110629246,0.06824826,0.06761953,0.04920732,0.17299666,-0.19502676,0.14929605,0.14401284,-0.8972593,0.05640773,0.18720429,0.1559697,-0.20929936,0.19753952,-0.06576479,0.09499779,0.24127987,0.12940782,-0.07849296,0.21295571,0.18474686,0.038569734,-0.1058222,0.03346546,0.090561286,0.10694774,-0.09628733,-0.062177148
AGK-2,0.3495411,-0.29274797,-0.059190527,-0.41937944,0.052772906,-0.22969313,-0.1934993,-0.04587388,-0.25082973,0.021323794,-0.2861802,-0.3241225,0.28530815,0.15819183,-0.12834485,-0.18394491,0.33684143,-0.54265046,0.23465858,0.55456847,0.4939423,0.106312335,-0.43665618,0.30586332,-0.02420492,-0.046164926,-0.20121492,-0.5382621,-0.38040575,0.44081435,-0.104434855,-0.16108632,0.20702681,-0.11740404,-0.2893056,0.24884564,0.13681394,-0.071085796,0.013834624,0.008189398,0.04884925,-0.2988955,-0.12125288,-0.09157692,-0.117271684,0.5829858,0.08221247,0.06194994,0.40735862,0.14449094,0.17309658,0.33241224,-0.51315194,0.1368231,0.5335756,0.14588244,0.2670048,-0.23049216,0.21528362,0.15417825,0.1825774,0.31080556,0.041090228,-0.077649206,-0.13057813,-0.3261406,0.04313985,0.3664078,-0.13441268,-0.06269931,-0.17284694,0.25632724,0.00048312545,-0.23833351,-0.49435663,-0.3367426,0.18746382,-0.16316792,0.09731129,0.51468444,-0.07754856,0.027659513,0.1178042,-0.013955209,0.44284642,0.01762099,0.12239507,0.30820334,0.031441547,0.5626825,-0.1973168,0.047170643,-0.30675414,-0.125701,0.09313837,-0.08217138,-0.61108387,0.09749513,0.21189299,0.019147202,0.4575893,-0.29449666,-0.7177602,-0.21304676,-0.32085478,-0.33190322,0.05202007,-0.117256224,0.3226704,0.18288355,-0.32340467,-0.14041498,-0.1156069,-0.17370416,-0.66205317,-0.013895862,-0.004421129,-0.034684718,0.14306086,0.19869839,-0.28143233,-0.24635625,-0.0619153,-0.07042623,0.16346726,-0.21058497,-0.103493765,-0.093188636
AGP-103,0.0037721843,-0.11198118,-0.25350118,0.15918826,-0.090900786,-0.014296949,0.039821662,0.09208492,0.0073931105,0.014070092,-0.27132627,0.024356656,0.04223639,0.24394587,-0.0005796477,-0.117371246,0.11704915,-0.16883484,0.12543915,-0.055945896,0.109648116,0.14370486,0.028338656,0.10260853,-0.027525097,0.0748144,0.04862413,-0.02705349,0.033044662,0.14370102,-0.12022832,0.029385682,-1.4409931,-0.22591837,-0.054419015,0.024945749,-0.03646964,0.23081096,-0.08316683,0.058161426,0.024698894,0.012637951,0.011676297,-0.20417443,-0.019270243,-0.13551722,0.11189371,0.005496679,-0.15788913,-1.0242705,0.17186707,1.2951682,-0.09593496,0.12481977,0.13823386,-0.09129091,-0.0012603424,0.11701713,0.13240145,0.03174584,-0.10299264,-0.07865701,0.12244893,0.05481937,-0.11090678,0.07325185,-0.023684185,0.10554056,0.06070278,0.19626033,0.10955314,0.061027333,0.051626146,0.08419177,-0.105673045,0.070813514,0.021583116,0.011637505,-0.02166325,0.16905324,-1.0670314,0.07073339,0.22936966,0.1197101,-0.034256883,0.1406667,0.11728333,-0.026861645,0.062491335,-0.044241093,-0.9607151,-0.11426388,0.12870944,0.31691152,0.10083044,-0.028989188,0.03411213,-0.09930184,-0.12372358,-0.36784056,-0.10606349,-0.014363429,0.019058926,0.102024436,0.064137965,0.09327772,-0.13849624,0.07926349,-0.43276227,-0.07807355,0.4687641,-0.23906259,-0.07744091,0.09179491,-0.010327098,0.12037383,-0.044153795,0.081211686,0.049896553,0.10901588,0.11954526,-0.027043262,0.17513826,-0.09117432,0.00770982,-0.10655148,-0.107625045,0.016774325
AICA-ribonucleotide,-0.05115226,0.14218387,0.10139118,0.033324845,-0.3200963,-0.12097195,-0.021687966,0.08662692,0.08786312,-0.02508567,0.14718112,0.1671175,0.02570222,0.016556107,-0.04036088,-0.09565288,0.09803508,-0.08237243,-0.17252974,-0.04433369,0.13838772,0.16067582,-0.13415244,0.17703359,-0.059848793,0.16162717,0.21424177,-0.15424314,-0.11077104,0.002853401,-0.12130608,-0.06931121,-0.12641215,0.10684484,-0.029290635,-0.0075594336,-0.1901721,0.17201923,-0.31513688,0.0017554088,-0.0022309162,0.03579167,0.078879,-0.101687975,0.046550244,0.09858199,-0.10204423,0.026348308,0.12075329,-0.085941136,-0.20575573,0.023681816,0.14761221,0.07530163,-0.059542187,-0.15383938,-0.027383419,-0.09552891,-0.010151802,0.15010704,-0.14005178,0.036752537,-0.027765585,0.103639625,-0.13665786,0.10248069,0.01964099,0.003291931,-0.014160373,-0.074661374,0.04937949,-0.17291293,-0.021920606,-0.066746406,0.2062212,0.023771098,0.07382801,0.2515596,-0.1430396,0.063901365,0.10516715,-0.08601844,0.11514896,-0.124352515,0.017063979,0.1775257,0.023503888,0.06286591,-0.14815,-0.013401686,-0.039128397,-0.010218877,0.2045258,0.04350627,0.17689063,0.0712424,0.10593189,-0.067022696,0.015784236,0.52270347,0.066244915,-0.045610823,0.0988036,0.24765985,0.105452195,-0.24982047,-0.09682427,0.2493397,-0.82057947,0.08848502,0.17481774,0.28374976,0.092420176,-0.029837355,-0.22132914,0.24812101,0.0014473447,0.20435223,0.0786073,0.09755587,0.06879963,-0.022490595,-0.0638568,-0.07683038,0.13708222,-0.01818558,-0.10527029,-0.017786456
AKT-inhibitor-1-2,0.39626327,-0.0058464333,0.6513874,0.0774256,-0.21676676,-0.23924024,0.749531,0.4648049,0.25560036,0.23302071,0.0824554,0.47478628,0.41626436,-0.026203565,0.37935135,-0.28097063,0.27267978,-0.66489357,0.53319407,-0.08693148,-0.31427878,-0.15582901,-0.20414779,0.35833475,-0.006033078,-0.28183308,0.3589304,-0.18066205,-0.14961468,-0.36124787,0.25534725,0.6452936,-0.29378322,0.31286976,0.23943047,0.38926265,0.31324548,0.07151241,-0.36468682,-0.23629859,-0.3035673,0.43683723,-0.02522551,-0.09587202,-0.20045654,0.17013982,0.19327039,-0.24017158,0.4830821,0.29126891,-0.07017254,-0.4314173,0.68451643,-0.29617795,0.019982804,0.5905994,0.6936406,0.07540869,-0.15808155,0.46395943,-0.030791547,0.17645614,-0.1495388,-0.04748702,-0.3952031,0.08149163,-0.16707689,-0.13615416,-0.54171133,-0.054074287,0.903246,-0.18053938,0.011815725,0.11030577,-0.11129925,-0.3400701,-0.5506429,-0.030032866,-0.2535241,0.28976694,-0.07897501,0.70812196,0.0757374,-0.5065014,0.20947981,0.7374905,-0.47257242,-0.18552828,-0.22531435,-0.22741126,-0.0421685,0.55287135,0.4394821,-0.17844401,0.562426,0.14833489,0.28646594,-0.093603946,-0.25787047,-0.050157025,-0.5176938,-0.037611768,0.52501774,0.1413521,-0.19047466,-0.37464547,-0.24654594,0.07635602,-0.14536941,-0.32272097,1.0081494,-0.4434045,0.9234942,0.16765603,0.32099977,0.2618877,-0.49727413,0.36127168,0.061625116,0.2656023,-0.10376945,-0.44417766,0.4465875,0.23738492,0.20533837,-0.5093336,-0.69605684,0.7301721
ALW-II-38-3,0.17259483,-0.5016344,0.1699683,-0.24925314,0.49139103,0.35694963,-0.27437583,0.06971306,0.80004096,0.5068878,0.1016912,-0.3473822,-0.2038797,-0.16862485,0.2549582,-0.4257818,0.095628604,-1.184676,0.3806185,-0.0664397,0.23737548,0.025091186,-0.37874228,0.45990843,-0.47960356,0.23212825,0.29615235,0.5413802,-0.08777066,-0.43802693,-0.18082598,-0.04063072,-0.20693573,-0.4501002,-0.76297265,0.18545502,-0.2805493,-0.15686195,0.15185311,0.5668225,0.26545015,0.04038671,0.70956993,-0.021008318,-0.05568127,-0.09469495,-0.2902667,-0.088107154,-0.11369844,0.5462705,0.5900871,-0.21958463,0.8128593,-0.13113411,-0.3761308,-0.23519123,-0.3355306,-0.0153758945,0.7548317,0.40395814,-0.76383024,-0.07700939,0.033318773,0.0083103515,0.16471173,-0.5720648,-0.27230242,-0.16502029,0.9401903,0.86642426,-0.32679623,-0.26590928,0.3854763,-0.08487076,0.2629871,-0.1279324,0.048553497,0.56573683,-0.059153043,-0.80866987,-0.27518985,0.049905643,-0.2427589,0.09711423,-0.2034421,0.24137402,0.63919973,-0.30246025,-0.088172615,0.21877606,0.11199133,0.044241462,0.74036145,-0.9914836,0.34385598,0.6378748,0.5624193,-0.42538917,-0.14717488,-0.28542453,-0.1733486,-0.38854247,0.38593912,0.28287986,-0.43786883,-0.30664477,-0.039623514,0.547747,0.14355816,0.09807269,0.86219484,0.109314814,0.5771272,0.21107821,-0.73221576,1.0921649,-0.1258174,0.78087914,0.028571732,0.13152443,-0.074865535,-0.03671201,0.21051645,0.22233948,0.4551397,-0.5604123,-0.5289865,0.19314167
ALW-II-49-7,-0.19833452,-0.011467503,-0.12396462,0.13198471,0.1704613,0.11459626,-0.0664071,0.007858211,0.0011478513,-0.017503927,-0.006347906,0.012371946,-0.05728324,-0.036787797,-0.036711384,0.03226593,-0.041912697,-0.27323335,-0.09023692,-0.13579668,-0.05337093,0.0042079575,0.03833726,-0.10346823,-0.019562574,-0.0652988,-0.046581756,0.16793023,0.22886491,-0.2335869,-0.027649159,0.012525257,-0.07283893,-0.26545155,-0.20239973,0.00047350675,-0.17613217,0.036490604,0.004242615,-0.01975351,0.016234476,0.022431616,-0.011941469,0.15485482,-0.19265251,0.17451683,-0.064672716,0.13246402,-0.10849069,0.24495755,-0.06828147,-0.07008584,0.16573593,-0.11615443,-0.19773021,-0.14914519,-0.2463623,0.13157685,0.063893184,0.14967126,-0.12627938,-0.08808281,0.10208622,0.024626888,-0.015449649,-0.026459295,-0.08325767,0.14102307,0.13251567,0.2449964,-0.060793336,-0.16090056,-0.02094375,0.00713809,0.10793392,0.002437126,0.032585107,0.29952097,-0.014855644,-0.0908625,0.01906394,0.13874187,0.058205597,-0.06773408,-0.11862666,0.0752119,0.11053516,-0.21010344,-0.07504877,-0.06632136,0.104313046,-0.17240033,0.004108765,0.13040605,-0.019456502,0.06356106,0.2283979,-0.17001182,-0.12525468,0.026253324,-0.15848495,-0.08213116,0.16994795,0.11338943,0.11009617,0.02904832,0.035004403,0.0490838,0.14389333,-0.021369297,0.40697867,-0.025417307,-0.05765156,0.045138255,0.17125939,0.25649646,0.06389888,0.12954664,-0.1686828,0.0139545705,0.0097571835,0.13840795,0.12188148,0.033745922,0.08673288,-0.045167964,0.05249767,-0.040371843
ALX-5407,-0.078340806,-0.5254019,0.20013814,-0.2726572,-0.12807721,-0.40464666,-0.43916696,-0.16686365,-0.028690781,0.079098955,0.21226576,0.010600468,0.12420343,0.18749171,-0.166472,-0.32579738,0.013092733,0.18701051,-0.26482373,0.091492735,0.22003524,-0.13925971,0.047566094,0.2470557,0.012208233,0.10769265,-0.055579077,-0.16096495,0.025270928,-0.018549101,-0.13211782,-0.1047643,0.028372956,-0.108949065,-0.188255,-0.11885091,-0.008713776,0.17726217,-0.22765425,-0.01768625,-0.21851966,0.26312017,0.16997078,-0.3037092,-0.12450139,0.05777701,-0.15067443,0.32956424,0.038275465,-0.07788861,-0.31166124,-0.037283197,-0.032559518,0.0152928755,-0.19540134,-0.05052307,-0.21784249,0.06368456,0.08453207,0.44473478,-0.0206774,-0.24269083,-0.05822979,-0.058232702,-0.14401971,-0.15812497,-0.103214696,-0.13365158,-0.401762,0.08884497,0.11712578,0.10971267,-0.22877942,-0.3075795,0.100583896,-0.18584374,0.048836164,0.38872018,-0.27238902,-0.09631799,0.24905758,-0.33853018,0.20927878,0.08739082,0.4119239,0.18000954,-0.003736794,0.10618766,-0.12472799,0.026611272,-0.21205387,0.03442459,0.16269852,0.059786793,0.38460746,-0.16202936,0.02266157,0.26471418,0.107801095,0.3215732,0.123192705,0.23716205,-0.06958865,-0.26222673,-0.16386157,-0.3987395,0.07805851,-0.037954412,0.021435928,0.38791654,0.050212484,0.13126737,0.15645051,-0.012382603,-0.23481083,0.18033536,0.023193639,0.13475999,0.059531257,0.05902438,0.062281538,-0.18794978,-0.17273179,0.07171969,-0.18757051,-0.12651135,0.04930497,0.034138147
AM-24,-0.035142537,-0.45236123,0.09533967,-0.33596027,0.12320949,-0.26025903,-0.37557003,-0.19501528,-0.043905053,-0.056435682,0.27166873,-0.04926033,0.15500733,0.11465765,-0.22384626,-0.114250064,-0.07955732,0.25347674,-0.13824943,0.025679449,0.22199932,-0.13886979,0.10360177,0.11201967,0.113672815,-0.025408518,-0.14183478,-0.022862364,0.16978657,0.053517144,-0.051354244,-0.04711996,-0.06852986,-0.12144889,0.103855476,-0.10522521,0.10034255,0.019752147,0.090557195,0.00071965693,-0.20709893,0.16353798,-0.090663195,-0.30964175,-0.039781272,0.09563952,-0.060946718,0.13664424,0.11882916,-0.07273977,-0.17573586,-0.1511166,-0.21524614,-0.037630852,-0.0656947,-0.014725242,-0.05816526,-0.10819015,-0.027242003,0.23374139,-0.006875124,-0.24953611,-0.048914697,-0.24003075,-0.018099388,-0.1788133,-0.07240739,-0.042242512,-0.3446755,0.060594868,0.14108317,0.02315379,-0.18862914,-0.2552697,0.08417619,-0.13884953,0.055201486,0.07946977,-0.18274717,-0.15878882,0.38090736,-0.29745102,0.14850447,0.12205513,0.48367783,-0.05967731,0.00061158836,0.057831164,-0.107439674,0.0015602554,-0.2555298,0.11542165,-0.048858672,0.028619427,0.24388435,-0.14062786,-0.052541595,0.2508633,0.17554122,0.29760197,0.19418715,0.35942578,-0.119983084,-0.38857272,-0.14074214,-0.39636967,0.16999319,-0.10479761,-0.07166106,0.29010752,-0.19818482,0.09753593,0.08775154,-0.10344523,-0.051470444,-0.15584522,-0.036629315,0.15178868,-0.047418546,-0.012465708,0.17768238,-0.14747027,-0.14618152,0.07547645,-0.26811692,-0.030231342,0.16750546,0.050504625
AMD-11070,-0.41320628,-0.22541943,-0.2098421,0.19467492,-0.5340195,0.23264028,-0.12116441,-0.2869104,-0.22063708,-0.03743136,0.014390048,-0.17981641,0.5582786,0.40735355,0.16393512,-0.0531021,0.28031892,-0.023731649,0.3949585,0.22335039,-0.095731236,0.0853879,-0.03783724,0.08352907,0.0821888,0.059648447,-0.0210674,0.24083647,0.15522738,0.13761157,0.19032423,-0.025892552,-0.039572712,-0.25648254,-0.14024484,0.12742093,-0.1278602,0.06030009,0.080009654,0.07855179,-0.24165072,0.13916907,0.32225305,0.025580995,-0.088083535,-0.095851816,0.22977409,0.13204214,-0.06996217,0.02896007,0.19917406,0.1733399,-0.11565034,0.16791691,-0.061400406,-0.124283,-0.20873879,0.20943114,0.113151066,0.042563803,0.17265724,-0.1174004,0.07031888,-0.04953893,-0.04335369,-0.010354295,0.0763557,-0.0032428242,0.37711406,0.4623644,-0.0061576124,0.1882579,-0.12731686,0.3679257,-0.20642462,0.21588627,0.05113142,0.1940426,-0.04601311,-0.052809138,-0.26949474,0.049138747,0.18346283,0.15142995,0.06709784,0.09374836,0.33847365,-0.022065781,0.38913167,-0.30428675,0.33298698,-0.27771294,-0.10658386,0.36881757,-0.2736079,-0.025506616,-0.0356275,-0.35330498,-0.25303954,1.0956602,0.0018826219,0.03453599,-0.2983269,-0.07727099,0.1266107,0.19757012,-0.20895824,0.01879132,-1.004312,0.034022473,0.4327849,0.35218143,-0.43173218,0.16673502,-0.007250949,0.24635206,0.16195521,-0.14216347,-0.06262851,0.062358364,0.012453988,-0.3461825,0.09768185,-0.34181833,-0.2476371,-0.20681825,-0.13652506,0.02003902
AMG-208,-0.09612994,0.20287582,0.037684835,-0.030231826,-0.40241086,-0.06492515,0.117395625,0.210858,0.07056689,0.022561098,0.1535916,-0.014988797,0.062375654,-0.2468954,-0.11272851,-0.1413332,0.056057505,-0.23303157,-0.22926049,-0.088975675,0.15911782,-0.06217493,-0.12761198,0.021948094,-0.15453927,0.18110295,0.0659589,-0.13995728,-0.22151993,0.1717158,0.19423687,0.15203796,-0.19925682,0.19968802,-0.08864485,0.0387133,-0.14226107,0.023558667,-0.17455387,-0.028239205,-0.089937806,0.16693965,-0.068400145,-0.15063247,0.06303987,-0.03995928,-0.07380614,0.17798519,-0.042246222,-0.49745935,-0.22430801,0.103017375,0.12696466,0.057439167,0.021208346,-0.05251668,0.028922142,-0.1098885,-0.018170973,0.11244005,-0.12571505,0.015328409,-0.09544596,0.04534334,0.08350894,0.14887658,0.10339187,0.08461289,0.060125954,-0.037061587,-0.08192482,-0.10837334,-0.16660519,-0.043238606,0.19419381,0.08028819,-0.0488432,0.12107545,0.10259207,0.08386142,-0.10945445,-0.019516882,0.09014788,-0.27224448,-0.06167744,0.24966088,0.11454067,0.0126913525,-0.008468764,0.068517275,-0.14835234,-0.17169793,-0.048126996,0.31240514,-0.036032617,0.005905021,0.053391945,-0.032794297,-0.07166965,0.25429863,-0.029309914,-0.055516064,-0.030889716,0.17904943,0.12640697,-0.21670537,0.21360445,0.24132833,0.35210255,0.212768,-0.0014839396,0.15046199,0.010503928,0.022004198,-0.2729806,0.19524293,0.12015434,0.13298695,-0.032151286,0.23102023,0.053111102,0.002552729,-0.062025405,-0.042534955,-0.060057804,0.12707412,0.036563955,-0.18549845
AMG-232,-0.06406066,-0.4580859,-0.3078211,-0.19345732,0.9223185,-0.33106863,0.62897193,0.36326066,0.255204,0.033340324,-0.446476,-0.050343286,-0.49419907,0.35497698,-0.47182116,-0.5137814,-0.12310052,0.05459208,-0.15552604,-0.0229812,0.04656968,-0.49391246,-0.6419092,-0.043685347,0.44264084,-0.0010179924,-0.21292849,-0.028062291,-0.13459128,-0.097810514,-0.02563429,0.29532564,0.100909494,0.35578164,0.61465776,0.13668227,0.3063843,-0.65167594,0.39165848,0.28095326,-0.0692018,-0.20985164,-0.3511865,0.13447452,-0.17705017,0.0011165813,-0.109302856,0.22095841,0.14830479,0.7166045,0.015702223,-0.98341984,-0.27457076,-0.17744426,0.3891835,0.0651462,-0.1697963,-0.07560386,-0.115719035,-0.0903286,-0.16973062,-0.1726222,0.1340922,-0.29829702,0.52385896,-0.28275347,0.25543225,-0.085267335,-0.2876801,0.2599697,-0.085490525,0.3341753,0.18445265,-0.029100396,-0.059051897,-0.36342007,-0.06025749,-0.034793146,0.6670674,0.1354494,0.83496904,0.054348394,0.13225076,0.16140988,0.48215625,0.025247231,-0.16564612,0.08975443,-0.32314625,-0.0085609825,0.45589033,0.09252991,-0.43482557,-0.18805398,0.1128733,0.03125943,0.01217168,0.24035755,0.111573786,0.3328318,-0.32799488,-0.13263167,0.28583938,0.06689943,-0.087914295,-0.16223072,0.64773154,-0.53599423,-1.0565445,-0.6645137,-0.85423636,0.31853843,0.34986448,0.0031772424,0.5554651,-0.6861359,-0.58208084,0.19538902,-0.58393294,-0.20901686,0.5191709,-0.24290109,0.5470908,-0.18319279,-0.3157885,0.36056608,0.8084597,-0.25873986
AMG-487,-0.048958164,0.32972145,-0.04137422,0.20568062,-0.5662379,0.11398353,-0.08434196,-0.034767944,-0.112216204,-0.010310298,-0.08426423,-0.14962104,0.3855697,-0.045904808,-0.21918638,-0.06492895,0.33989146,0.17071554,0.15116884,0.17837612,0.16380543,0.17106655,-0.37270755,0.24430557,0.0020410926,0.07834779,-0.03985564,0.1586803,-0.12673986,0.14059809,0.046825867,-0.10236866,-0.14193586,0.06558046,0.074627146,-0.06445663,-0.28877985,0.03589374,-0.41386,0.045040146,-0.23465101,0.024770198,0.0565156,-0.37574393,0.19004,0.012792351,-0.0035114754,-0.25048116,0.237301,-0.13401139,0.23947193,-0.20399931,-0.124578446,0.24425247,-0.09518853,-0.20111959,-0.25034168,0.01073535,0.044774204,0.01912712,-0.1315864,-0.14018317,0.038728945,0.16614828,-0.23222102,0.29339153,0.059295133,0.030530587,0.15666354,0.053282816,0.028161537,-0.14949483,-0.05322123,0.12158257,-0.2005544,0.5275894,0.023745477,0.22053835,-0.21465752,0.23197621,0.12779921,-0.049178313,0.21066172,0.0059591457,0.123854026,0.22291687,0.26479253,-0.019694582,0.17516099,-0.14452463,-0.40950623,-0.011965717,-0.011503311,0.43061128,-0.058404237,0.29632112,-0.039054096,-0.24559101,-0.21470883,0.40799266,0.16926011,0.11358003,-0.058035746,0.07185399,0.22299518,-0.24258144,0.057455305,0.35540012,-0.9518188,-0.10835731,0.26037452,0.52377,-0.2674673,0.14778548,-0.16725299,-0.10282025,0.22644538,0.001649797,-0.16841774,0.23837811,0.2526062,-0.25511503,0.13254039,-0.31992048,0.11236651,-0.06778519,-0.05103994,0.33520186
AMG-517,-0.022858627,-0.65225714,0.019329544,0.14815873,-0.64504147,0.037757803,-0.2538039,-0.19323361,-0.2250303,0.012911124,-0.43445635,-0.21987608,-0.061891366,1.1696758,-0.029219592,0.51835096,0.22448367,0.26287404,0.7560413,0.7121906,-0.07687089,-0.21234418,-0.07490039,0.44172096,0.026317626,0.19197914,-0.49715325,-0.05080617,0.03792128,0.09671007,0.06433886,-0.13313173,0.42030662,0.19238378,-0.14436325,0.16034868,-0.060124904,-0.38168067,-0.00878843,-0.17999372,0.17612632,-0.19404565,0.08366914,-0.17653747,0.04976044,-0.22915632,0.49520102,-0.12807663,0.70088434,2.1782792,0.37406924,-1.6524383,0.20515919,-0.29875034,-0.5076885,0.11777484,-0.4252774,0.14223772,0.3273177,0.37320116,0.058803964,0.06954032,0.048096083,0.24300177,0.042034775,0.113641,-0.2194236,-0.4092055,0.7130184,-0.24010012,-0.100424744,-0.1711761,-0.12774904,0.4005572,-0.71598834,0.25755736,-0.5692112,-0.059961244,-0.5966222,0.115024135,-1.1280664,0.4145039,-0.5622258,0.094255894,-0.32640487,-0.050902337,0.28117594,0.028578058,-0.09024114,-0.10594942,-0.9353491,-0.07718915,-0.02177571,0.5282188,-0.5177414,-0.11822047,-0.42927584,0.14536509,0.37581834,-0.5248397,-0.032896068,-0.00655796,-0.4412521,-0.039801553,-0.2247076,0.027657954,0.14759456,-0.011376271,-1.9963387,-0.37495643,1.4517323,-0.31686735,-0.13071291,0.41094178,0.014765204,0.52168405,0.2811716,-0.7618208,-0.17015602,0.13198973,-0.45440215,0.2543355,-0.017453954,0.36707607,0.51901346,-0.5925061,-0.023822976,0.40782338
AMG-837,-0.254843,-0.18578342,-0.21075748,0.10097753,-0.16473472,-0.020961057,-0.12290487,-0.1339207,0.046587758,-0.22341898,0.48783168,0.23604973,-0.009003664,0.10897987,0.11948164,0.25542745,-0.11819062,0.011415025,-0.10857521,-0.07883306,0.10993165,0.25331843,0.3178053,0.003781179,0.018595144,-0.03316128,0.28293192,-0.093872875,0.1462387,-0.045941405,-0.08307835,0.005108718,-0.1695869,-0.12867947,0.004861716,0.102173574,-0.18541968,0.4108623,0.03240827,-0.061374653,-0.085930705,0.07311241,-0.21034676,-0.065493636,-0.03896187,-0.11856149,-0.3211495,0.21845031,0.027336407,-0.057694875,-0.20957309,0.10584797,0.08951018,0.24443457,0.026721042,-0.14203456,0.08642329,-0.1926059,0.06372766,0.2881496,-0.11977513,-0.015906382,-0.14511657,-0.008570995,-0.14735734,-0.012951065,0.047027517,0.168334,0.07046555,-0.12192263,-0.024799647,-0.17685905,-0.14784305,0.2827272,0.44099188,-0.2399134,0.16639112,0.041974187,-0.0453085,-0.09866154,0.14457108,-0.15326546,0.13581523,-0.12469402,0.03184533,0.08345659,0.031553943,0.017459076,-0.111215435,-0.16758092,-0.001106415,-0.01399419,0.26754603,0.020344693,0.21955736,0.009528302,0.25226521,-0.047701158,0.080131635,0.70848036,0.05978124,-0.034772463,-0.05277406,0.026732601,0.12807152,-0.19944873,-0.28795752,0.0888309,-1.1006523,0.2497798,0.03708705,0.044803616,-0.09871553,-0.113565244,-0.25165972,0.36726514,-0.10891576,0.1973057,0.1457698,0.17735548,0.059827343,-0.0816419,0.048580267,-0.0015296545,-0.17014322,-0.06306874,-0.3646803,-0.13240105
AP-26113,-0.28416762,0.64808446,-0.041512534,0.6992125,-0.47832784,-0.27425212,0.10729048,0.023349661,-0.19321969,-0.13152328,0.21420307,0.3435387,-0.32726836,-0.5589783,0.14113238,0.46313956,-0.19157144,0.5633222,0.022478888,0.008110588,-0.13138571,-0.08274583,0.5065906,-0.48802298,0.24581257,0.2650273,0.11587961,-0.045237508,-0.08739797,0.07733981,-0.2491408,0.119746625,-0.7593925,-0.17871128,0.45232698,-0.08484637,0.050327986,0.21840103,-0.086485155,0.0079439515,0.5941215,0.07411421,0.17135578,0.043882016,0.29161942,-1.2137601,0.52710664,-0.013254648,-0.21840616,-0.38815632,-0.16022058,-0.7171895,0.0020825118,0.25149074,-0.16990727,0.3058508,0.069116935,0.0035608485,0.1360667,-0.14808865,0.3657296,-0.02192338,0.09050262,0.35910413,0.017263707,0.3065729,0.27292177,-0.46399212,0.033790845,0.039725795,0.19217569,-0.10109308,0.05416725,0.4701052,0.35373932,-0.022044465,-0.060286943,-0.027938232,-0.13429289,-0.28028274,-0.08618592,0.15092026,-0.2816127,0.17334272,-0.5544692,-0.21159953,-0.3177979,-0.1789417,0.02783565,-0.4918109,0.7476376,-0.13643296,-0.1020484,0.41677254,0.045393504,-0.2710582,0.39608988,-0.38955605,0.09823088,-0.54004234,0.08696412,-0.23958687,0.15612161,0.49375644,0.47785366,0.6872372,-0.39926535,0.12098801,1.3781308,-0.22236115,-0.60916084,-0.004371433,-0.08811174,0.22993433,0.64999706,0.13313642,-0.15777555,-0.12628892,0.4803837,-0.30961463,-0.0026411116,0.14154299,0.034494754,-0.19551119,-0.31171703,0.36714196,-0.3012313,-0.0104448935
APD-668,0.04399044,0.007938359,-0.040787503,-0.103396796,-0.120160356,0.079722464,0.10022022,0.05036933,0.03863453,0.083029635,0.22472206,-0.13874194,-0.007729863,-0.06396208,-0.08679257,-0.037082564,-0.05652014,-0.29430214,-0.023224711,-0.13198824,0.07160192,-0.029822212,0.048129737,-0.16064355,-0.03115421,0.014510043,-0.06402862,-0.059951443,0.03155864,0.085137874,0.26796347,0.16486686,-0.0860337,0.0695993,0.07354708,0.02166631,0.021101905,-0.08957052,0.108904675,0.058991875,-0.034600444,0.06920523,-0.22617432,-0.22419901,0.069238104,-0.07432281,-0.028088922,0.06270218,-0.015842605,-0.27166075,-0.05765199,-0.008790765,0.07594397,-0.09067966,0.081784286,0.019018143,0.07213645,-0.20990057,0.035363365,0.083383694,-0.07477029,0.0068056732,-0.058298953,-0.17308292,0.14859764,-0.06346004,0.050108813,0.09533946,0.116238415,-0.03332247,0.0050485875,-0.09963533,-0.18452808,-0.0036850646,0.10968908,0.032513022,-0.10201192,-0.10291326,0.21188727,-0.08460665,-0.104169935,0.0117806755,0.013604123,-0.21216439,-0.0036785975,-0.044986457,0.05374651,0.04025715,0.06956148,0.020566754,-0.20574488,-0.103912205,-0.06281039,0.16479768,0.029688302,0.028836155,0.10479893,0.068868965,-0.006508743,0.25214654,-0.06670769,0.0278503,-0.00019471161,-0.03258802,0.07778652,-0.13519202,0.2889348,0.12147832,0.27128854,0.11593109,-0.045611292,-0.08874131,0.036089566,-0.043651573,-0.0315742,-0.055032548,0.0012337738,0.14646542,-0.07488182,0.17885356,0.03787753,-0.024779994,0.034277875,0.055515364,-0.101217166,0.08520648,-0.0014985194,-0.047522645
API-001,0.2602885,0.43942326,0.468592,-0.15964226,-0.49634996,-0.14262515,0.031192603,0.31149164,0.18104132,0.09124717,-0.017090512,0.07431382,0.1491254,0.095679946,-0.19185422,-0.23661888,0.13847886,-0.13479309,-0.25973582,-0.1593792,0.14051518,-0.06757753,-0.43478954,0.13424584,-0.21358228,0.23504055,0.09603939,-0.26812226,-0.12902233,-0.015028091,-0.13806036,-0.12206459,0.077472195,0.23853067,-0.1058065,-0.05549586,-0.11222731,-0.23870249,-0.35592863,-0.029458057,0.14809524,0.1489547,0.3684218,-0.111941636,0.18798862,0.3742959,-0.28750244,-0.2140592,0.12296502,-0.19875184,-0.27515352,0.0059156977,0.13046554,-0.2735891,-0.13340694,-0.01157081,0.031609166,-0.10580954,-0.107638255,-0.10280795,-0.12299666,0.19184664,-0.02404774,0.022982156,0.035114005,0.024574794,-0.050842546,-0.09689523,-0.08657178,-0.00027859583,0.18039998,-0.20993805,0.080894716,-0.6206809,0.08835918,0.24016753,-0.15285747,0.21589352,-0.2545509,-0.07862273,0.048045676,0.05415103,-0.026190385,-0.12681644,-0.0027504861,0.16497979,0.07864705,0.15372233,-0.2010658,0.22734195,0.09161316,-0.109541446,0.078063436,0.07365662,0.17266253,0.005068956,-0.14697604,-0.023506045,0.099285915,0.69216824,0.08855122,0.0749449,0.2937004,0.27683908,0.09674797,-0.3558779,0.24106732,0.33138916,-1.0511043,0.15151966,0.14761445,0.40779158,0.30278188,0.00810892,-0.06958178,0.23170336,0.07769025,0.29344016,0.124800995,0.056064963,0.07895274,0.21980068,-0.35670128,3.0290335e-05,0.35278273,0.074750364,0.11102199,-0.06494231
AR-A014418,-0.014228027,0.058654428,-0.018968329,-0.04097283,-0.016819544,0.15221712,-0.009693284,0.039603647,-0.041954223,-0.060066923,0.077418596,0.08779296,-0.0029886598,0.056744494,-0.055473555,0.12509999,-0.020459136,0.07664299,-0.002915997,-0.10271341,-0.08890535,0.035123996,-0.07856553,-0.03218852,-0.048768863,-0.09864221,-0.10875228,0.07416424,0.056967996,-0.1260042,0.13962205,0.014254775,0.11151343,-0.019972306,0.02473684,-0.075951226,-0.085774295,-0.08766425,-0.039178997,-0.03814872,-0.045239937,-0.034012925,-0.0015430171,0.15099585,-0.05812632,-0.0075515117,-0.10257631,-0.045657214,0.083631694,0.10366981,-0.035184607,0.066733934,0.07169076,-0.0431351,-0.08175897,0.072766565,-0.043881845,0.06344605,-0.081254646,-0.01985583,0.0294451,-0.05080202,-0.13078968,-0.052563563,0.012035035,0.0023280084,-0.048238996,0.04278879,0.031903654,0.0065201335,-0.00041559958,-0.10321618,0.0016066097,0.00096571445,-0.067723185,0.052243408,0.047258556,0.04274251,-0.15000555,0.031921938,-0.025443435,0.04439157,0.07016092,-0.055002507,0.06805687,0.078236476,0.03587498,0.02860526,-0.0012525376,-0.017875368,-0.19114815,0.013343491,-0.01075181,0.15967064,-0.03234852,0.034162126,-0.009573496,-0.056492165,-0.061716735,0.045160796,-0.093127914,-0.07021476,0.09557925,-0.0036910288,-0.040748663,0.008091813,-0.0019350499,-0.0047792736,0.20927449,-0.0074586095,0.12767981,0.022118384,-0.03019648,0.004095874,0.08653143,0.0002890788,0.026232794,0.016820025,-0.08418285,-0.058280308,-0.05056195,0.059396423,-0.0021164343,-0.0026857536,0.014654584,0.04462304,0.048363052,-0.019275846
ARN-509,-0.0057925954,0.07913948,0.20560546,-0.038383514,0.047798198,-0.1806508,0.065247476,-0.07768058,-0.030812923,-0.01471466,0.066152066,0.052552257,0.06823264,0.049617082,-0.08951915,-0.14006673,-0.142374,0.08613405,-0.024179876,-0.13911594,-0.027110653,-0.034938045,-0.13391367,0.10163059,0.10213025,0.038051594,-0.029906351,0.038173903,0.16595238,-0.0773893,-0.119075805,-0.04163041,-1.3602998,0.11209364,0.24759628,0.060212668,0.12811433,-0.1386541,0.06191452,-0.039901875,-0.055935163,0.0035919715,0.08308545,-0.36950603,0.04214946,0.070470355,0.0015347693,-0.17544141,-0.21795435,-1.5132608,-0.07557397,0.9099726,-0.06552869,-0.04861557,-0.063597016,-0.09633809,-0.049511235,-0.09913083,-0.22564837,-0.05924132,-0.0019969232,0.10798854,-0.008420339,-0.19592169,0.10822154,-0.05273912,-0.040351387,-0.07026875,-0.11973326,0.052128047,0.29427725,-0.075415514,0.080383554,-0.25241297,0.18933976,0.099237405,0.065301046,0.018597206,0.034247216,-0.11058621,-0.87389785,-0.11155951,0.0012107044,0.19701938,0.16371512,-0.034372605,-0.05493825,0.07701488,-0.1563264,-0.07576467,-0.9014141,0.056621667,0.113830954,0.40448803,0.18464595,0.04478346,-0.058578614,0.091394484,0.1391133,-0.47113758,0.029048705,0.24664551,0.31873807,-0.013786763,-0.0062373457,-0.12415604,-0.006439533,-0.21827143,-0.6289158,-0.1063132,0.1820972,0.049417827,0.07082158,-0.026489798,0.24347721,-0.2367429,-0.14591691,0.09132282,-0.04838988,-0.0758315,0.1559659,-0.05740321,-0.08745291,-0.12538949,-0.11389293,0.008847037,0.1524709,0.14267237
ARP-101,-0.2917425,-0.6258379,0.25565815,-0.17474326,-0.0691903,0.17313658,0.14109406,-0.13772772,0.016856976,-0.038828664,0.5559557,0.14362866,0.7186336,0.90318906,0.59421456,-0.19573611,-0.14835553,-0.63157123,0.039011624,-0.31425497,-0.22624297,0.07052726,0.44586086,-0.26807752,-0.14623739,-0.074540846,0.39173996,-0.29747918,0.5320704,-0.24890113,0.25275663,0.13611782,0.053956755,-0.4070377,-0.42233756,0.51431775,0.18306705,0.110116675,0.5277554,-0.017722564,0.06465693,0.33234006,0.7149546,0.5009128,-0.20217584,0.37796235,-0.22395894,0.39162216,-0.39883384,-0.41536474,-0.62352955,0.7599504,0.064886436,-0.31158942,0.2084581,0.22529665,0.57687,0.0012719929,-0.22922026,0.04405413,0.55868846,0.38081068,-0.19439796,-0.5758331,0.3301277,-0.6340719,-0.067069516,0.28669196,-0.12587455,0.6912253,0.27015975,0.2384122,-0.04608983,-0.45857984,0.6409606,-0.78549284,0.2846393,0.03318227,0.16146919,-0.61878324,-0.091305256,0.035194986,0.1110114,-0.023663629,0.15538606,-0.19080427,-0.022271125,0.15280312,0.07903549,0.013459649,1.4748248,-0.49236813,0.099000245,0.1507377,0.44943672,-0.37492713,0.0032376908,-0.2876454,0.11879863,1.3753699,-0.015014408,-0.273121,0.12305829,0.047674663,0.053506114,0.22247273,-0.60302204,-0.19165628,-1.7755159,0.67127913,-0.02288571,0.02011129,0.13934907,-0.30224797,0.014198543,0.73349625,-0.44708186,0.57547873,0.5802098,-0.15656939,-0.28807157,-0.015122576,-0.40927157,-0.33507192,-0.52222943,-0.023894468,-0.47402802,-0.52563155
ARRY-334543,-0.080977544,-0.29341924,0.1995627,-0.027340233,-0.24619214,-0.17896803,-0.0008298792,0.15255548,-0.009295102,-0.053359598,0.06871499,0.13997293,0.047442507,-0.06260911,-0.02309786,-0.024440166,-0.026441028,0.19896583,-0.1361185,-0.053173304,-0.058456577,-0.18759307,-0.14420114,0.1619727,-0.04276583,-0.11383955,-0.0006436072,0.013122639,0.016988138,-0.17473722,-0.023703916,0.0373812,-0.21424183,0.12872624,-0.06937967,0.039063323,0.016819187,-0.012402277,-0.3011256,0.05513662,-0.11183976,0.15542763,0.36661094,-0.049702965,-0.036347575,-0.12899354,0.017793858,-0.022344261,-0.0741103,-0.43609452,-0.1474725,0.035657495,-0.079071544,0.11361542,-0.053443775,0.08568317,-0.09671623,0.13761409,-0.10832641,0.08487073,0.037536148,0.026846705,-0.13959113,0.076019235,-0.085649274,0.09881332,0.014415766,-0.10635795,-0.22892866,0.07635471,0.0905689,-0.008444067,0.010747137,-0.3031029,0.22616872,-0.037306707,0.00049765036,0.108538255,-0.33625022,-0.06716804,0.30136198,-0.07312797,0.14509374,-0.01942126,0.18520296,0.30944285,-0.015848853,0.012417361,-0.1385967,-0.021674043,-0.019646494,0.012905464,0.13055816,0.22665666,0.21331392,0.0013042262,-0.082441926,-0.080747284,0.03664661,0.058858365,-0.054264117,-0.022575809,0.3919692,0.04500714,-0.045844436,-0.16639857,0.00018034503,-0.10602967,0.70265996,0.19335537,0.1284757,0.22383027,0.18678667,0.111223206,-0.05562488,0.24414173,-0.023892742,0.13094763,0.047586437,0.05603254,0.09079462,-0.108261324,-0.104631044,-0.15836003,-0.1227724,-0.062306315,-0.029390955,0.016670853
AS-601245,0.23719324,2.3199856,0.1360662,-0.17599283,-1.1764889,0.7485786,-0.4908168,-0.021025293,0.59073514,-0.26199168,-0.004518103,0.044683397,0.49025276,0.77519083,-0.31629875,1.0005168,0.2873681,0.8692541,1.0696363,-0.38531387,-1.2263317,1.0201292,-0.47467196,0.60430753,0.67914045,-1.2794483,0.8408073,0.80022496,-0.1615559,-1.0299369,0.046894822,0.74382734,0.8462235,0.2781929,-0.22834872,0.46974283,-1.905441,0.36642724,-0.9769793,0.103597194,0.16447054,0.28520787,-0.65603876,0.14188865,0.51387435,0.101516895,0.4695258,-0.8525786,-0.8823004,0.818519,0.76387453,0.34830296,1.1739743,0.8031208,-0.3829143,0.38456798,0.2924868,-0.36901543,-0.30113128,-1.0600682,-1.079904,-0.15490167,-0.7787993,1.3165706,-0.6845386,0.25670117,-0.3266795,-0.79193413,-0.91035545,-1.1124299,-1.9655815,-0.06561235,-0.15218554,0.11965974,0.74094445,0.686871,0.6095445,-0.69776374,-0.37812507,-0.14608936,-1.9837884,-0.98158514,0.28504482,-0.95946985,0.77461594,-0.43287772,0.06387617,-0.13873726,-0.52007484,-0.83550626,-0.6125847,-0.38202256,0.013741668,1.1732073,-0.34556887,0.5115508,0.77524084,0.4402226,-0.9965335,-0.63764983,0.88161886,0.20649509,0.5505794,-0.21981984,-0.92109734,-0.33604562,-0.040339686,1.1412772,-0.12311004,1.0148195,1.7127321,0.012750976,-0.9543132,-0.84329844,-1.372594,-0.73044735,-0.21949187,0.5522039,-0.9163128,0.023635764,0.49055493,-0.01963719,0.13669,0.59425884,-0.056473285,-0.28720725,0.13884878,0.12898378
AS-605240,0.081145704,-0.02851003,0.07427429,-0.2083686,-0.3941739,-0.3071883,-0.20796573,-0.2581865,0.12224612,-0.5022882,0.5772482,0.23201887,0.20092447,0.30887815,-0.21100919,0.40681088,-0.11383107,0.79712963,-0.016263824,-0.24921782,0.25345016,0.10731417,-0.4865852,0.28681663,-0.31848305,0.14361793,-0.1732787,0.25701934,0.38369045,0.25939715,0.011999063,0.20613399,-0.81558686,0.091420636,0.19060276,0.11624843,-0.01659233,-0.5274065,-0.06385898,0.42664552,-0.60983205,-0.16726878,-0.25603724,-0.17117764,0.24939297,-0.6040446,-0.016493097,-0.5373248,0.07374495,1.3431036,-0.10198354,-0.59976757,-0.0006434843,0.025314081,0.04707361,-0.218162,0.10619671,-0.22059941,-0.30170617,0.0065454026,-1.030243,-0.287813,-0.26283222,-0.18843707,-0.16084766,0.14577562,0.0378386,0.1019728,0.1456988,-0.3145337,-0.037311025,-0.01815751,0.21153699,0.121987894,0.27002725,0.14366746,0.19192243,-0.27010217,-0.25382337,0.026792187,0.003386028,-0.49649286,0.04798407,-0.106848806,0.24227545,0.55873173,0.20005295,0.12687762,-0.43777892,0.35599214,0.3720046,0.47696385,-0.2517134,0.10955699,0.100182064,0.10031812,0.003281219,0.29820627,0.13053045,-0.39106983,-0.078395285,0.34390727,0.4703543,-0.31579533,-0.30413786,-0.7548657,0.11711894,-0.13030908,0.17359154,0.54594916,-0.18858983,0.3730544,-0.26906508,0.29700506,-0.28344515,-0.08259195,0.140226,0.65481186,-0.4882276,0.27260712,0.69846004,-0.20065376,-0.08976772,-0.020003187,-0.50550115,0.27056587,0.16331989,-0.31083086
AS-703026,-0.061858498,-0.0058068223,0.3545788,-0.02738839,-0.44174278,-0.32296354,-0.41057864,-0.88268137,-0.31075874,0.10554149,0.11210431,-0.056500833,0.023879874,0.8167809,0.037509006,0.10167886,0.22729973,0.68096864,0.43083596,0.3986409,0.08797527,0.32926846,0.06817262,0.32901722,-0.19399695,0.5303231,-0.720269,-0.2393928,0.67255795,0.31291527,0.22581112,-0.3192723,-0.30963075,-0.0060771704,-0.39633992,0.45610997,0.19292116,-0.4991923,0.058174342,-0.16629146,0.13183784,-0.48075035,0.21509716,-0.53052443,-0.12283357,-1.0184639,0.90085614,-0.18790507,0.44999865,3.2253237,0.21464711,-1.5817336,0.1909681,-0.6281375,-0.38960046,-0.17906144,-0.3818249,0.047964893,0.06424257,0.26351732,-0.42603955,0.22232562,0.27213165,-0.26181465,0.059646234,-0.25703257,-0.38744953,0.052736253,0.8615899,-0.1965375,0.21627416,-0.08738127,0.2670848,-0.019595912,-0.5220242,0.16492847,0.24771613,0.053233515,0.01522877,-0.20754777,-0.5606328,0.22906707,-0.18086599,0.35457057,-0.5256075,-0.23007768,0.27152118,0.3604169,-0.12774041,0.2704683,0.7278827,0.24621767,-0.2680486,-0.051243797,-0.09739261,-0.2983423,-0.268468,0.31289294,0.5586831,-0.82075983,-0.20959732,0.06047498,-0.12871237,-0.051833212,-0.038036674,-0.49903134,-0.035641786,-0.20213692,-1.3441365,0.02400485,0.5981431,0.70065105,-0.16144373,0.52336043,-0.046183433,0.18981814,0.14781119,-0.26046962,-0.13086891,0.12907064,-0.14841744,0.2793761,0.0020931363,-0.2706655,0.031888798,0.039568026,0.36282283,-0.08839799
ASA-404,-0.16589773,0.3537442,0.21648982,-0.06716157,-0.2636067,-0.11665596,0.10351013,0.14365391,0.07571508,0.012578275,0.2170749,0.06057672,0.16218287,-0.39861846,-0.16795857,-0.25342804,0.03287911,-0.31459042,-0.21515222,-0.18005806,0.05649066,-0.046696376,-0.24294685,0.017851582,-0.13259438,0.18278031,0.0032172315,-0.081459925,-0.15626499,0.06402822,0.27963978,0.13456616,-0.025529036,0.23085812,-0.058570947,0.1090124,-0.14806066,-0.12175046,-0.096910596,-0.16323166,-0.07664409,0.1702174,-0.07539463,-0.033312112,0.0061024018,0.03966464,-0.16247858,0.25186315,0.050596237,-0.47399676,-0.35768768,0.1292136,0.2808951,-0.080355175,-0.12345371,0.00042814808,0.017679086,-0.11431362,-0.1617111,0.07353218,-0.075602874,0.035412125,-0.14185698,-0.101822756,0.17965584,0.094564654,0.0408534,0.08185847,0.013991475,-0.016677141,0.00024687874,-0.12673655,-0.16332391,-0.18806124,0.24783483,0.0701073,0.04922062,0.22085057,0.16411224,0.0539218,-0.21270354,-0.030004907,0.06360165,-0.31143674,-0.038077623,0.20656714,0.05616447,0.05620739,-0.100548685,0.022853935,-0.09578798,-0.1715817,-0.124705315,0.43325225,-0.07006652,-0.012493939,0.066165954,-0.026977561,-0.06004253,0.06975033,0.0019148265,-0.03387161,-0.0069420636,0.13343075,0.05830934,-0.22711335,0.25798872,0.20998982,0.36436462,0.13651913,-0.02307209,0.20843296,-0.038363695,-0.08621406,-0.14922996,0.10731545,0.06069781,0.14708653,-0.1471864,0.084741734,0.0028142072,0.06943602,-0.11286772,-0.09739693,-0.089865096,0.2602492,0.29109803,-0.1726194
ASC-J9,0.26221532,-0.26568383,-0.10895793,0.122130364,0.20410393,0.3316441,0.006752068,-0.29149395,0.040015504,0.3728328,-0.076295465,-0.43781847,-0.26441297,0.68995124,0.06862341,-0.035267986,0.03929612,-0.7915467,0.50869006,0.24430819,0.14743732,0.17802572,0.16114724,-0.1569496,-0.011347303,0.06379788,-0.3825931,-0.32546797,-0.16042045,0.1627723,0.45957315,-0.15214418,0.76051116,0.10258007,-0.10258806,0.15814358,-0.08614668,-0.21594943,0.35649377,-0.09160211,0.10232881,-0.2745238,-0.29895484,-0.10073764,-0.12732847,-0.081692964,0.1446606,0.30346566,-0.00659021,0.42350283,0.20554298,0.05632746,0.24146923,-0.291989,0.0005919859,0.031935778,-0.13774197,-0.12476557,0.16709629,0.3629147,0.14005683,0.1851224,0.17332353,-0.43295687,0.14197704,-0.5093965,-0.3211647,0.12055245,0.7155695,-0.1435606,-0.12812524,0.16178916,-0.034250516,0.14477801,-0.30863664,-0.18353847,-0.08898288,-0.22044885,0.5184844,0.3409051,-0.42604345,-0.006628476,-0.35155836,-0.13536869,-0.38366002,-0.099840246,0.12479907,0.36139584,0.26084584,0.22392307,-0.71226484,-0.32325765,0.025559261,0.105082884,-0.2497702,0.044316668,-0.0002707038,0.2935077,0.049355496,-0.06982887,-0.30943954,-0.23801768,-0.5450644,-0.14720461,-0.18607584,0.24090843,0.28763044,-0.03203977,0.90650797,-0.113527164,-0.09457364,-0.56411856,-0.25569594,0.019495968,-0.3131326,0.0018760711,0.24102455,-0.2924228,-0.20758566,0.22715832,-0.46912968,-0.06416899,-0.032437064,0.36419764,0.4357552,-0.11487608,-0.13646604,0.023323469
AST-1306,-0.1332833,0.21840237,-0.26031995,-0.061255995,0.14362626,0.20740268,0.02925985,-0.13083845,-0.2397317,-0.200549,0.14734547,0.1775638,-0.20674302,0.49772877,0.016288903,0.47266468,-0.19831446,0.12570514,-0.36072034,0.22219932,-0.10112314,-0.15353993,0.2642117,-0.2921155,0.14316669,-0.14115936,-0.23290531,-0.08849782,0.02368233,0.028541911,-0.34073523,-0.15576364,-0.45737115,0.24764374,0.38845903,-0.036540024,0.16959988,-0.17362273,0.10513973,0.08262413,-0.23111187,-0.10599448,-0.20426059,0.049099416,0.025604263,-0.063433126,-0.040119536,-0.14148101,0.031913057,0.01932584,-0.25446033,-0.17923966,-0.11252069,0.03823283,-0.107286125,0.04656158,-0.07929565,-0.06335551,-0.30018902,0.1281327,0.2536571,-0.10137018,-0.2544305,0.009303528,0.0599484,0.029181913,0.092968486,-0.2571807,-0.1667609,-0.2499302,-0.033015117,-0.06393713,-0.13429305,0.34497327,-0.1516302,-0.10870645,0.033584613,-0.027901247,-0.30111122,-0.02071156,0.48646986,0.16086864,-0.1589165,-0.041437414,0.21124044,-0.016452145,-0.08563659,-0.042286508,-0.015643716,-0.035437472,0.21289015,0.055526014,-0.27530533,0.17165244,0.021555979,0.004148634,-0.09467183,0.04015351,0.17509721,-0.100630574,-0.16460182,-0.090561256,0.07621459,-0.0024761818,0.2559323,-0.08485011,0.15042925,-0.30124438,0.04151016,-0.09036033,-0.11477204,0.20379588,0.028750237,0.22236867,0.36629516,-0.16710526,0.12662789,-0.13503079,-0.029624883,-0.2339769,-0.18962936,-0.05274556,-0.13408768,0.026586786,-0.20796458,0.17847654,-0.1214686,-0.13214332
AT-13387,0.29821774,0.2536633,0.5665299,-0.17824543,-1.4423678,-0.55074143,0.2608589,-0.17662132,0.43052748,0.16463932,0.28042677,0.09275001,0.11939168,0.21718335,0.30364636,0.061400816,0.7303376,-1.6227038,0.6000665,0.43475133,-0.49732578,-0.012044657,0.35514355,0.22258234,0.26294106,-0.56913203,0.5036014,0.025380641,0.013233356,-0.08983101,-2.313351,0.10157944,0.39671767,0.5393377,0.12424478,0.7826947,0.4633013,0.17566752,-0.5253729,0.23255481,0.06372614,0.8591174,0.6715059,0.04714693,0.21454506,0.78512526,0.56724757,-0.3492661,-2.1602042,-0.26411816,0.4131795,-0.029688925,-0.081124805,-0.1774158,0.0016223565,0.66585964,0.011455855,0.10696586,0.14896984,0.214397,-0.2892161,-0.2353082,0.09472866,0.085526764,-0.20134322,-0.0025260746,-0.016641913,-0.55440253,-0.21891525,-0.25337124,0.48082978,0.24558714,-0.34398413,0.094487,0.18280447,0.24431902,-0.7051841,-0.096045285,-0.19699754,-0.81173235,0.2932915,0.3897828,0.17025469,-0.07964149,0.59869796,0.0381896,-0.034877926,-0.18569663,0.17231949,-0.5238707,0.30075735,0.6223047,0.12950318,0.06875594,0.28212175,0.2174065,0.4988678,-0.1410391,0.04581971,-1.0027461,-0.08124339,0.54225844,0.2932039,-0.061330773,0.5740007,-0.41237083,0.5157858,0.14541316,-0.34911016,-0.22561143,-1.5740423,1.1771332,0.8807662,0.48015654,0.025171243,-0.11173138,-0.13493448,-0.07352066,0.24983115,0.26593152,0.37199962,-0.64821166,0.34418124,-0.28144482,-0.5442113,-0.010872771,-0.052981295,0.40969098
AT-7519,-0.1977812,1.767446,0.053110216,-0.72215694,-0.427648,0.4753687,0.5398807,0.10198285,0.46817356,-0.54383767,0.30110043,-0.031165086,-0.17842327,0.4355018,-0.31028977,0.8529395,0.19594589,0.57574826,0.5326901,-0.06176731,-0.3588044,0.058807738,-0.7342699,0.20079891,-0.12140934,-1.5121839,0.23891884,0.1501204,-0.09513334,-1.049626,0.7307935,0.43394038,1.0714543,0.42275378,-0.6403812,-0.53661466,-0.10876385,0.16521862,-0.573174,0.41626635,-0.43559933,-0.37238675,-0.79622453,0.5215688,-0.47806638,1.0923685,0.68663603,0.253687,0.43379468,0.86291814,0.28314766,0.5677172,-0.2926911,-0.020568963,0.8991125,-0.26208705,-0.6679584,0.18945813,-0.7172761,-0.24783055,-0.085088074,-0.11858292,-0.1686928,0.26161507,-0.5732501,0.5046457,0.17736636,0.43260962,-0.3024935,-0.46001512,-0.5351738,-0.19635822,0.27674744,-0.26239377,0.15346923,-0.21055874,-0.045412745,-0.5603585,-0.35838646,0.41546813,-2.1290004,-0.5309576,0.60054576,-1.0712107,0.77800995,0.12272245,0.1837749,-0.09730302,-0.91728276,0.47007263,0.22316742,0.6250849,0.41453627,-1.0477406,-0.69803995,0.9646397,-0.21317367,-0.5244493,-0.03108375,-0.5904728,0.24711579,-1.1349646,0.6360813,0.17315783,-0.16799074,-0.6331617,0.2737533,-0.2437425,-1.4961841,0.6242019,1.381605,0.7964009,0.016824804,-0.21378975,-0.7750365,0.22233482,0.047744278,0.20864527,-0.6002733,0.49916992,0.27913588,-0.4348601,0.29524198,-0.008566815,-0.11447189,-0.21824786,0.6269495,-0.3772386
AT-9283,-0.23855081,-0.028844114,0.07763991,0.12044534,-0.7457768,0.06691842,-0.3361914,-0.55015206,-0.10910027,0.30506995,0.30187538,0.09511131,0.021396369,0.71917474,0.45180297,0.52808666,0.07007882,1.3006835,0.62420344,0.5428118,-0.5397614,0.56062573,0.36591762,0.055825807,0.50877213,-0.07083049,-0.3478438,-0.32974523,0.56131864,-0.2652664,0.18591535,-0.13692006,1.0382751,-0.18140942,-0.28033492,0.9197545,-0.49875963,-0.10601978,0.35973278,-0.49580023,0.20934069,-0.3295252,0.1808847,1.1979531,-0.18055484,0.9214572,0.55012524,0.16720632,0.26423627,1.5044898,0.15508948,0.04386087,0.6792027,-0.39605138,-0.45415252,0.7593009,0.080748454,0.064108916,0.15273295,-0.10367186,0.2078079,0.43119848,0.09652897,-0.20128445,-0.05748198,-0.6641916,-0.4599482,-0.21300863,0.54986954,-0.12807423,-0.4284817,0.118859544,0.089139186,0.19447912,-0.30230117,-0.29787472,0.29276982,-0.08025889,0.28748834,-0.56733745,-0.21810973,0.26320666,-0.3168469,0.2634304,-0.5581695,-0.5767486,-0.13307476,0.5438563,0.09729423,-0.21525319,0.3941102,-0.42004165,-0.10434857,0.15058026,-0.09144589,-0.41869545,0.16665417,0.5403454,0.10741322,-0.49931827,-0.11656851,-0.22958928,-0.40369803,-0.15931906,-0.26501474,-0.035523996,-0.28842083,-0.22344583,-1.3343574,0.14567621,0.0021102577,0.100403085,-0.22505277,-0.23255314,-0.31846768,0.03311121,-0.028259777,-0.4705516,0.116226785,-0.14925739,-0.2599727,0.156601,0.19750024,-0.07207389,0.023960836,-0.19203465,-0.025797406,-0.19225378
AT7867,-0.31395656,0.37160075,-0.08394636,0.9080564,-0.26429704,-0.007356737,0.4716405,-0.041493922,0.49345356,-0.06222906,-0.10353768,-0.011058465,-0.28285196,0.30415785,-0.14086281,-0.11254427,-0.19480976,0.10791524,0.42440993,-0.27881446,-0.13391115,0.14813867,-0.12347409,0.0278532,0.1925373,-0.40941575,0.3438861,-0.26899514,0.22218806,-0.69368607,0.66990155,0.3455617,0.07967284,0.429198,0.11460979,-0.13185114,-0.103533335,0.045676008,-0.3633651,0.06588063,-0.021289855,-0.22304355,0.10286221,0.019942423,-0.03832261,-0.31898788,0.06734275,0.08399275,-0.05885865,0.6042022,0.1322325,-0.32140148,-0.2191115,-0.008987809,0.22620957,-0.0071168384,-0.42872104,0.27254525,-0.31040767,-0.33096007,0.18777873,-0.22625814,0.38320443,-0.36739656,0.19118513,-0.060362004,-0.44352064,-0.33788395,-0.01919797,-0.10543582,0.38308302,-0.004467413,0.44300747,-0.6210231,0.6111628,0.03278738,-0.26186663,-0.37969652,0.26001915,-0.014384475,0.24559069,-0.60619545,0.11373506,0.13941956,-0.24939197,0.0076028295,0.10485244,0.48231083,-0.37562996,-0.15121278,-0.16126332,-0.40086353,0.6797107,0.36378545,0.12356122,0.35905722,0.13574614,0.13729829,0.10166122,-0.14607197,-0.2854963,-0.22106113,0.89345443,0.4249942,0.14358675,0.3397629,0.13867112,0.24861747,0.2979065,0.109622285,0.37980527,-0.19548468,-0.20930523,0.2628272,0.07988547,0.07298118,-0.2450765,0.42775673,-0.28303176,0.5174595,0.37128413,-0.16966452,-0.002308108,-0.26519856,-0.02707174,0.21584754,0.17714863,0.20774439
ATN-161,-0.13424492,0.08705641,-0.5471482,0.22848216,-0.119915485,0.18750544,0.038459767,-0.108753316,0.15885057,-0.15039477,0.43432668,0.24943785,-0.10415099,-0.003826864,0.20506233,0.23168615,0.07766691,-0.10867495,0.04639545,-0.02352146,0.07558414,0.64700407,0.21411707,0.0010794811,-0.020518046,-0.074259266,0.32928553,-0.013279211,-0.08782594,0.005343199,-0.03239427,-0.19108014,-0.067668475,-0.24854818,0.010323908,0.032761283,-0.3157527,0.6146242,0.04099602,-0.07721761,-0.11856477,-0.19766282,-0.3945202,-0.11482039,-0.076208174,-0.39769652,0.03013117,0.16068825,-0.10511547,-0.17891948,0.14319049,-0.05015693,0.14611551,0.3433202,0.2045474,-0.109099105,0.037256602,-0.08942857,0.103411004,0.10984556,-0.20840089,-0.0911575,-0.09622402,0.00023019993,-0.27552435,0.09322471,0.0030025374,0.3640622,0.31682584,-0.16984718,-0.039548974,-0.20114793,0.019458057,0.6640133,0.017112574,-0.04516996,0.3227256,0.051338628,0.17125154,0.23343714,0.43808076,-0.12741502,0.31429657,-0.00039512292,0.060720235,0.17165056,0.038651984,0.18715647,0.12997293,-0.215733,-0.31458893,0.18246703,0.43316147,-0.12931074,0.06227569,0.1839508,0.3875265,-0.09998389,-0.16331524,0.28482282,-0.02442685,-0.27906576,-0.22920671,0.21035865,0.1450007,0.02326385,-0.5693116,0.15675633,-1.3699021,-0.06136431,-0.12532824,0.15566163,-0.26848015,-0.13656247,-0.39424437,0.206385,-0.104057826,-0.025483541,0.15534991,0.22379191,0.04773191,-0.16809112,0.43733966,-0.12329268,-0.065395676,-0.094915204,-0.33792832,-0.09554916
AV-412,-0.69426435,-0.11482691,-0.52234596,0.32527587,0.35110134,0.6389268,-0.10805851,-0.5772415,-0.2977523,-0.020747779,0.09264423,-0.06908956,0.37559268,0.9344875,0.93558884,0.31349728,-0.17570339,-0.6662336,0.27925614,0.2509367,-0.35180768,0.21062024,0.988872,-0.52892137,0.026509043,-0.20380016,-0.049058247,0.020941583,0.5995389,-0.05724626,0.15453047,-0.13360527,0.3878345,-0.5050665,-0.3953395,0.39075607,0.15357228,0.1580535,0.7886816,0.038028643,0.07926248,-0.18741065,0.43701172,1.2256716,-0.31764013,0.20451553,0.39565882,0.4447205,-0.39659387,0.22185345,-0.25336304,0.57316196,-0.12889954,-0.13933326,0.1100578,0.13426612,0.1274641,0.291031,-0.059226684,0.017724546,0.98289365,0.19804204,0.14467719,-0.41739213,0.26846966,-0.49313968,-0.048837624,0.017703228,0.47006333,0.5921143,-0.18194152,0.5147045,0.099922,0.3652557,-0.11897395,-0.63045245,0.2943463,-0.09250477,0.20586605,-0.61424613,-0.18807009,0.14446516,-0.26621446,0.27816656,-0.4926288,-0.62277424,0.117076546,-0.056618698,0.4210825,-0.06509664,1.5607158,-0.58812505,-0.14439715,0.54811364,-0.18489939,-0.34367898,-0.057798654,-0.14794198,-0.01676517,0.8562541,-0.16308889,-0.53908455,-0.37600523,-0.17183939,0.14289375,0.84115994,-0.64149576,-0.40839794,-1.2622771,0.28098008,0.2285222,-0.3133026,-0.45862424,-0.2348081,0.13164899,0.62495655,0.09822859,-0.0971075,0.42835677,-0.4145742,-0.5827764,-0.04141878,-0.36184314,-0.2249254,-0.447479,-0.027183287,-0.46192044,-0.3969137
AV-608,-0.01967768,0.23345117,0.26340282,0.013667793,0.1470752,-0.20447363,0.06829919,-0.1523536,-0.1138632,0.01861979,0.1509144,0.0637276,0.09340756,0.026869223,-0.130425,-0.1810669,-0.19970638,0.12487182,-0.078664064,-0.06909063,-0.025813723,-0.069753826,-0.11332774,0.08676973,0.120934084,0.046144933,-0.107301965,0.014883029,0.19947511,-0.09833042,-0.17070994,-0.09565914,-1.3815508,0.16186304,0.32343352,0.13641134,0.15234289,-0.2429594,0.091087036,-0.14817812,-0.10632901,-0.044017296,0.07854538,-0.35865214,0.0185631,0.12772416,-0.015285508,-0.18894082,-0.22931667,-1.6104277,-0.13086538,0.83050656,-0.048294775,-0.079501554,-0.1688635,-0.045809966,-0.03418036,-0.14116767,-0.25423697,-0.06835494,0.06097832,0.13089176,-0.018491521,-0.27318528,0.15510182,-0.13044873,-0.07782297,-0.13544895,-0.16889644,0.04252417,0.33543724,-0.104382135,0.11837609,-0.2703754,0.19903162,0.06418407,0.0954263,0.06989939,0.057202503,-0.14446993,-0.86541003,-0.049261715,-0.052300125,0.23622596,0.1550349,-0.0460063,-0.10789615,0.11214143,-0.16703664,-0.08399041,-1.0625167,0.07411848,0.040439453,0.49290562,0.24853075,0.05944133,-0.048170425,0.1343739,0.20435399,-0.59774965,0.02839095,0.2498174,0.37602636,-0.014524523,0.05127743,-0.1491133,0.04277188,-0.2811436,-0.6228038,-0.17530555,0.16262896,0.11176754,0.062517025,0.016993629,0.32759497,-0.38112682,-0.1593916,0.09509456,-0.06620371,-0.13393626,0.09911171,-0.07751309,-0.11869221,-0.19401267,-0.12826931,0.075651266,0.11361222,0.16758375
AVL-292,0.026991012,0.20267661,-0.19239408,0.17580032,-0.0595917,-0.28432915,-0.19270279,-0.21168664,0.03788433,-0.25859421,0.23126999,0.038250085,-0.49850836,0.66324663,-0.40356693,0.2696535,-0.24365202,0.69527924,0.43587065,0.22874117,0.14405458,0.3188575,-0.06054657,0.31992537,0.1421492,0.31209138,-0.102304414,-0.17801313,0.08778789,0.00436873,-0.018175738,-0.08292206,-1.3952897,-0.10513225,0.14850497,0.11526767,-0.3358533,-0.14036405,0.21198091,-0.40129188,0.45282328,-0.5617865,-0.22333193,-0.20803763,0.07183713,-0.122155316,0.29113537,-0.0048641097,-0.033562444,-0.4987813,0.28914794,0.34726125,-0.047574196,0.1662989,-0.16459529,0.07211084,-0.0690173,-0.27313176,0.13727196,-0.26065996,-0.21086915,0.008107446,0.09334208,-0.10880536,0.17268589,-0.243729,-0.061725777,0.053457044,0.36498556,-0.3578195,-0.14309318,-0.26623774,0.22047688,0.18230043,0.050970573,-0.13081443,-0.0006469898,-0.18665881,0.08982337,0.13599639,-0.7751581,-0.39223337,-0.43579334,0.37335214,-0.122184075,-0.36002317,-0.06601305,0.56735516,-0.2828934,-0.098295644,-0.9684029,-0.15448394,0.21531689,0.70853126,-0.24735093,-0.032225076,-0.15918067,0.37690243,0.5520429,-0.57248443,0.39042488,0.01693092,-0.18522608,0.12765345,-0.2900846,0.28267345,-0.2125975,-0.07395018,0.22790198,-0.31986943,0.19532965,-0.87288475,-0.37068757,0.031579524,-0.22113492,-0.20264348,-0.10666237,-0.29759076,-0.053955667,-0.05453917,0.03269552,0.39348403,-0.07980662,0.24086776,0.3358181,-0.0498133,0.06821901,-0.08780161
AVN-944,0.24774429,-0.75568604,-0.3978318,0.061299514,1.0686982,-0.32980108,0.391223,0.07815109,-0.043195967,0.33025652,-0.80668414,-0.1426638,-0.9707175,-0.16706142,-0.59541285,-0.301296,-0.27580446,0.36068225,-0.077917606,0.16374455,0.01781749,0.07439899,0.17922543,-0.122537464,-0.015891738,0.23476048,-0.11470747,0.084282815,-0.58585566,0.36513737,0.051682044,-0.22194551,0.45992285,0.10434608,0.07119082,-0.11927099,-0.03245371,0.12082532,0.14341283,-0.36939198,0.7950435,-0.58928275,-0.45696962,0.42716444,-0.27608007,-1.8049699,0.24735218,0.22925553,-0.78811246,0.90457267,0.3059162,-1.3777751,-0.0048483573,0.19444416,0.4083043,-0.13239731,-0.1915627,0.17588222,0.053399768,-0.81190395,-0.17237352,0.20924114,0.25302914,0.5434191,0.34303552,0.16224161,-0.16747549,0.17750156,-0.19000094,-0.27137873,-0.542824,0.2516067,0.60166574,0.105431736,-0.41233635,0.12232563,0.3484373,-0.6469905,0.87509114,0.82303315,0.083437845,0.03556779,0.13339743,0.449937,-0.66719687,-0.20778602,-0.33251858,-0.018840797,-0.22068952,-0.08298364,-0.015621925,0.2451624,-0.28757808,-0.3888193,-0.21364716,-0.16115215,0.14823617,0.48819658,-0.124916345,0.022318084,-0.25849736,-0.39572254,-0.05764932,0.26122904,-0.188002,0.5918649,-0.07991909,-0.3674287,-2.1744845,-0.7162249,-0.08066639,-1.1016831,-0.4261445,0.12550859,0.122873046,-0.7482431,-0.21380813,-0.58973104,-0.060817536,-0.22595266,-0.24599417,0.45172086,0.73658603,0.03326284,0.1308042,0.33537668,0.7785977,-0.41952118
AZ-20,0.07955826,-0.79623055,0.022474768,-0.1350895,-0.67696625,-0.21946594,-0.37920937,0.1299393,0.61074364,-0.13998806,0.3237788,-0.114769295,-0.14698088,-1.1926473,-0.26506567,-0.043537512,-0.00022580661,-1.4799722,0.64426005,0.014331242,0.55531603,0.19873683,-0.65549695,0.5128087,-0.37602288,0.32275072,0.08992785,-0.044503186,-0.107212104,0.14866649,0.00742675,-0.048513193,0.009045603,-0.30856466,-0.31320173,0.033827547,-0.1311893,0.25343367,-0.08379919,0.21463943,0.25731277,-0.39787138,0.49987915,0.41694406,0.19376826,-0.26158533,0.09375011,-0.07890646,0.28427935,0.4009005,0.43643868,-0.43326926,-0.59767693,0.20865397,0.5253036,0.020801034,-0.13828582,-0.24316545,0.25112778,-0.6852064,-0.24970992,-0.011973861,0.20662364,-0.5030012,-0.28404212,0.052072838,0.06422672,-0.0042029433,0.62059927,0.30413172,-0.00591938,-0.07893223,0.9539142,-0.4712145,-0.21888545,0.31955585,-0.0015001446,-0.25248843,-0.3886628,-0.36504462,-0.13919336,-0.7779003,0.02436462,0.76829845,-0.19007558,0.2421534,0.66604304,0.5664433,-0.18970169,0.4667191,0.09520641,0.20709991,0.79181075,-0.44598687,0.06405993,0.25236326,-0.4777208,0.13906386,0.6726763,-0.56104505,0.57570165,-0.19373383,0.15821552,0.038942054,-0.46845987,-0.4746767,0.07756096,0.17579286,-0.21052158,0.6526156,-0.41830125,-0.55514157,0.31039074,-0.1175706,-1.1077062,0.7448394,0.11417339,0.35828292,0.5817928,0.20478897,0.66996163,-0.23374116,-0.5093389,-0.16480902,0.10662104,-0.38280863,0.17942134,-0.23445481
AZ-628,0.2117972,-0.25875175,-0.32714283,-0.61294705,0.7310613,0.26006275,-0.009003073,0.03274963,0.23754983,-0.07690116,0.27993512,-0.3206771,0.16049972,0.53530455,-0.6881998,0.23430395,0.08725714,0.4454866,-0.50089544,0.5878782,0.29294038,-0.41607994,-1.0478857,-0.1513042,0.40714753,0.276112,-0.85154015,0.0045395866,0.53262657,-0.12239884,-0.67574704,-0.4028569,-0.6904317,-0.3051094,-0.28246874,1.2426091,-0.38012892,-1.2284752,0.25086766,0.59284955,-0.4833677,-0.35794726,-0.060002547,-0.045292035,-0.27371377,0.16226555,0.0927564,-0.44908854,0.32394955,1.3007964,0.23947917,-0.20006984,0.44890356,-0.21480313,-0.5719216,0.094938636,-0.5704021,-0.1813467,-0.11944603,0.41073155,-1.1455013,-0.20487157,-0.33395928,-0.17228687,0.0005568033,-1.0851364,-0.1892038,0.46178335,0.39866385,0.4833134,-0.72164524,-0.086477526,-0.45170134,-0.011799458,0.0484756,-0.42046037,0.37047076,0.85245603,-0.08093285,-0.21212162,0.15622546,0.55994964,-0.45235568,-0.5292233,0.92270535,0.800086,0.35955414,0.25850028,-0.44266126,0.1951599,0.9420803,-0.62924427,-0.97328436,-0.99952024,0.45377028,0.6006305,0.2630049,0.07167749,-0.09931323,-0.3979348,-0.5387507,-0.81013834,0.522982,0.20247601,0.062635146,-1.0156475,0.7677978,-0.5711238,-0.15476058,-0.29369467,0.17365831,1.4911379,-0.033441223,1.1311464,-0.15624626,0.27340743,0.031005546,1.014046,-0.94033456,-0.07669555,0.07984099,-0.11308537,0.72400427,-0.1201082,-0.11705325,0.15794286,-0.28074658,-0.62789375
AZD-1208,-0.08450753,0.17033476,-0.015269462,0.105158396,-0.29342425,0.037199933,0.07059106,-0.01772116,-0.018694885,0.084060095,0.27226976,-0.11298373,0.11874026,-0.24133265,-0.18294172,-0.22238246,0.084915295,-0.28122368,-0.09033559,0.027344948,0.13903947,0.036437728,-0.11766359,0.020389816,-0.06802914,0.14078875,-0.037864882,-0.051672917,-0.16939689,0.121476844,0.1421032,0.07128729,-0.2094044,0.16088304,0.030453052,0.026351063,-0.112335436,0.0069785677,-0.19560319,-0.038946074,-0.2928659,0.097069904,-0.14257321,-0.20894717,0.015748635,-0.09258908,0.12154809,0.10303217,0.036742054,-0.3912856,-0.05287841,-0.2545761,0.08868731,0.102765486,-0.07109926,-0.00067882915,-0.103283495,-0.08236973,-0.019062413,0.1869105,-0.08330873,-0.1717852,-0.06675018,-0.092976995,0.03419417,0.018387042,0.045033883,0.11641814,0.10288352,0.0032032728,0.059644263,-0.12636825,-0.18281671,0.09842367,0.07244792,0.12686187,0.012480414,0.23800564,0.175266,0.13101307,-0.032387387,-0.09925604,0.09681973,-0.1731623,0.034989133,0.2349936,0.12138887,0.04381688,0.1758024,-0.067145854,-0.3069714,-0.090986535,-0.010204157,0.3150442,0.049950425,0.22267161,0.14144152,-0.030315593,-0.08504848,0.012616011,-0.03312216,-0.020878585,-0.025654245,0.077672645,0.15914659,-0.19690779,0.2518716,0.22915423,0.1131731,0.042904347,-0.033521645,0.2618623,-0.05937086,0.11607403,-0.19374497,-0.09828341,0.15141426,0.11946462,-0.13796535,0.20920287,0.01777973,-0.2320168,0.04846368,-0.14610264,-0.103811696,0.11747164,-0.044199966,0.078864165
AZD-1480,0.06466346,-0.12584645,0.029451173,0.008514537,0.08665416,0.032122515,-0.039749738,0.0008693985,0.013375314,0.0327568,-0.02744051,-0.014615165,0.02106022,0.03952823,0.0048091747,-0.015495364,-0.010527132,-0.10766155,0.056218423,0.022711126,0.07403976,-0.010692108,0.08065672,0.042490646,-0.0054383464,-0.07305814,0.0041915737,0.04505957,0.007937284,-0.015642842,-0.11129476,0.05873731,-0.12145645,0.064167455,0.093966335,0.040026613,0.047041707,-0.005418446,-0.03273804,0.04028566,-0.03012808,0.0010418165,-0.06301671,-0.062274598,0.029371843,0.009830875,-0.006553583,-0.121778935,0.14845225,0.089086995,0.06066952,-0.12686285,-0.016768355,0.027944356,0.023068188,-0.00137497,0.08234293,-0.07730773,-0.009672426,0.08026742,-0.025817841,-0.03443297,-0.0029780827,0.015402186,-0.036863036,-0.017350815,-0.03229737,-0.05818635,-0.087219104,-0.023071915,0.0066149067,0.025887772,0.00801035,-0.011291513,0.050916288,-0.045345902,-0.016667973,-0.10351087,-0.029885499,-0.0013635233,0.095382035,-0.052898724,-0.00964307,-0.07012369,0.041540343,-0.018050078,-0.05476346,-0.05516868,-0.009971162,0.00926557,-0.020179661,0.07846399,-0.0394504,-0.08711016,0.074479066,0.04039797,0.0780527,0.04014197,-0.03527269,0.16771242,0.011126867,0.04246567,0.05659146,-0.08908661,0.0055517536,-0.0838215,0.08298889,0.073791124,-0.05331588,0.012064485,0.025329527,-0.062076148,0.041471608,-0.033967562,-0.061218586,-0.06197777,8.796668e-05,0.16385064,-0.026752738,0.022281514,0.043402735,-0.087354705,0.04028074,0.06552498,0.022262804,-0.0025368389,-0.11979492,0.12068239
AZD-1981,0.57954943,-0.34200078,-0.44090182,-0.058778252,0.29775116,0.06970397,0.5068401,0.6491466,0.25729206,0.29970357,0.4154296,0.04995514,-0.6895595,-0.15160584,-0.46035537,0.10776521,0.010684311,0.49270037,-0.6086517,0.10343466,0.25584877,0.06365454,0.1196166,-0.4728458,-0.50828266,-0.014315636,0.058613986,-0.035472054,-0.50321734,0.34019634,-0.21137704,-0.5042823,-0.32015505,-0.20086376,0.0066020377,-0.17135909,-0.16924568,0.3216346,0.0030554757,-0.53880346,0.32936352,-0.27494016,-0.38770375,-0.21044646,-0.20780985,-1.4393115,-0.08478814,-0.32863757,-0.12841003,-0.89264864,0.22293957,-0.9121902,-0.08697436,0.08071409,0.46989912,0.2966793,0.13934748,0.08837208,0.08898309,-0.96387357,-0.27327543,0.25900725,0.05727469,0.39525262,-0.06117989,0.08813476,-0.19422063,0.5464402,-0.11289688,-0.03163728,-0.020432739,-0.23218913,0.47934234,0.098919965,-0.46149006,0.33499965,0.01665933,-0.6882857,0.30530348,0.5588366,1.3467395,0.5359384,0.4671329,0.2295,-0.062238738,0.39886346,-0.39737618,0.15354624,0.125611,0.010476686,-0.6573042,0.37022528,-0.05005558,-0.8826541,0.09594018,-0.103827976,0.5192475,0.29287484,-0.5351219,-0.2752702,-0.6033105,-0.40603408,0.22316325,0.5199443,0.4308993,0.0862489,-0.12403932,-0.32659972,-0.8163998,-0.30452234,0.029603388,-0.59416515,-0.0036864413,0.3524922,0.08563935,-0.13185266,0.146121,-0.036754355,0.42607328,0.2053818,-0.15655673,0.26556143,0.81033903,0.068924375,0.10358639,0.11245541,-0.18873166,-0.74476033
AZD-2014,-0.021731969,-0.95223594,-0.18794686,-0.2367326,-0.29846236,0.32641298,-0.07154466,-0.06298003,-0.017865814,-0.110667735,0.02984593,-0.09942779,-0.06572281,-0.9216441,-0.16905846,0.23581964,-0.08134732,-0.5842933,-0.044862196,-0.28459093,-0.4224606,0.07608068,-0.20874959,-0.20719373,0.22491466,-0.501727,0.06296492,0.12705703,0.19665623,-0.38013083,0.10476719,0.12906145,-0.7609113,0.0989642,-0.204488,-0.06822511,-0.18294698,-0.19199802,-0.36078694,0.3656033,-0.128635,0.23721223,0.08287974,0.6153873,-0.100645944,-1.1808192,0.6647127,-0.29989785,-0.76905876,-1.6483477,0.06490863,-1.1973394,-0.107246056,0.039546315,-0.0018003546,0.03586198,-0.28225088,0.20440032,-0.46442938,0.033422694,-0.2525152,-0.3019211,-0.3630935,0.22847517,0.095232,-0.021000765,-0.23763762,0.09549616,-0.34704545,-0.14126572,-0.318633,-0.005661619,-0.48545974,-0.3245976,0.2801278,0.22565523,0.12759295,-0.08697204,0.035938673,0.062769845,-0.38660058,-0.3396058,0.35000432,-0.39115494,0.5866414,0.04135493,0.13854074,-0.009507261,-0.0009398293,-0.2735592,0.051810022,-0.31435132,-0.38453054,-0.3490707,-0.16815573,0.051652405,0.14311042,0.09565376,-0.40837651,-0.8079724,-0.1474122,0.008535191,0.3661651,-0.065029845,-0.09718692,0.13826883,0.361924,0.1658398,-0.46430495,0.39234617,-0.3737735,-0.32563844,-0.26359713,0.15410702,-0.020795375,-0.06487924,0.13154136,0.24311823,-0.5619878,0.09138572,0.006697219,0.021726143,0.11997706,0.018291403,-0.26309252,0.26657474,0.47550598,-0.12849896
AZD-3514,0.29895687,0.0638923,0.124712035,-0.21950108,-0.004726842,0.0132323755,0.4390302,0.21656315,0.18253952,-0.17784771,-0.24950211,-0.07423103,-0.23146579,-0.99349964,0.06406282,0.4980791,0.06765321,0.8231572,0.73065716,0.10443826,-0.3401012,-0.34548873,-0.39571178,0.016799392,0.19764295,-0.60336965,-0.11638719,0.042547174,0.0177183,-0.3617801,0.6061134,0.19875403,0.05405247,-0.062282454,0.015434433,0.23745751,0.2774817,-0.44305608,0.3988695,0.23997086,0.23878956,-0.15250799,0.51474017,-0.9285843,0.008048456,-0.8908523,0.019192746,-0.24558982,-1.4476928,0.03912656,0.44840562,-0.21145166,-0.20112076,-0.23038912,0.4364244,0.45469013,0.16754042,0.1361147,0.09132683,-0.110606775,0.16279694,0.38142425,-0.1697427,-0.022253072,0.13262974,-0.12617268,-0.048052855,0.20696737,-0.1727185,-0.06928991,-0.15975605,0.08749458,-0.06829731,-0.2128463,-0.16282114,-0.20263594,-0.39851537,-0.7144229,-0.061250865,0.054331657,1.4152929,0.15651226,-0.14367726,0.0904637,0.52112097,-0.08498678,-0.033433884,0.14616115,-0.027470734,0.30636212,-0.22826336,0.3226245,-0.16045094,-0.21730596,-0.156015,-0.117839426,-0.45156616,-0.0034989193,0.020928893,0.06041281,0.016502043,-0.06507976,0.102550015,-0.03377811,-0.38362315,0.33564615,-0.15333004,-0.36595967,-0.15048508,-0.05525897,-0.8729318,-0.20390701,0.31236306,-0.061797403,0.10613777,-0.18362422,-0.33430055,-0.43320635,-0.11329649,0.14824475,0.16736154,0.24790028,0.17033204,-0.011366345,-0.008619979,-0.37224483,0.25698864,0.061246015
